{"learner":{"attributes":{"best_iteration":"291","best_score":"0.04391299002347476","scikit_learn":"{\"_estimator_type\": \"regressor\"}"},"feature_names":["hour","minute","day_of_week","is_weekend","is_peak","is_festival","weather_code","intersection_id"],"feature_types":["int","int","int","int","int","int","int","int"],"gradient_booster":{"model":{"cats":{"enc":[],"feature_segments":[],"sorted_idx":[]},"gbtree_model_param":{"num_parallel_tree":"1","num_trees":"300"},"iteration_indptr":[0,1,2,3,4,5,6,7,8,9,10,11,12,13,14,15,16,17,18,19,20,21,22,23,24,25,26,27,28,29,30,31,32,33,34,35,36,37,38,39,40,41,42,43,44,45,46,47,48,49,50,51,52,53,54,55,56,57,58,59,60,61,62,63,64,65,66,67,68,69,70,71,72,73,74,75,76,77,78,79,80,81,82,83,84,85,86,87,88,89,90,91,92,93,94,95,96,97,98,99,100,101,102,103,104,105,106,107,108,109,110,111,112,113,114,115,116,117,118,119,120,121,122,123,124,125,126,127,128,129,130,131,132,133,134,135,136,137,138,139,140,141,142,143,144,145,146,147,148,149,150,151,152,153,154,155,156,157,158,159,160,161,162,163,164,165,166,167,168,169,170,171,172,173,174,175,176,177,178,179,180,181,182,183,184,185,186,187,188,189,190,191,192,193,194,195,196,197,198,199,200,201,202,203,204,205,206,207,208,209,210,211,212,213,214,215,216,217,218,219,220,221,222,223,224,225,226,227,228,229,230,231,232,233,234,235,236,237,238,239,240,241,242,243,244,245,246,247,248,249,250,251,252,253,254,255,256,257,258,259,260,261,262,263,264,265,266,267,268,269,270,271,272,273,274,275,276,277,278,279,280,281,282,283,284,285,286,287,288,289,290,291,292,293,294,295,296,297,298,299,300],"tree_info":[0,0,0,0,0,0,0,0,0,0,0,0,0,0,0,0,0,0,0,0,0,0,0,0,0,0,0,0,0,0,0,0,0,0,0,0,0,0,0,0,0,0,0,0,0,0,0,0,0,0,0,0,0,0,0,0,0,0,0,0,0,0,0,0,0,0,0,0,0,0,0,0,0,0,0,0,0,0,0,0,0,0,0,0,0,0,0,0,0,0,0,0,0,0,0,0,0,0,0,0,0,0,0,0,0,0,0,0,0,0,0,0,0,0,0,0,0,0,0,0,0,0,0,0,0,0,0,0,0,0,0,0,0,0,0,0,0,0,0,0,0,0,0,0,0,0,0,0,0,0,0,0,0,0,0,0,0,0,0,0,0,0,0,0,0,0,0,0,0,0,0,0,0,0,0,0,0,0,0,0,0,0,0,0,0,0,0,0,0,0,0,0,0,0,0,0,0,0,0,0,0,0,0,0,0,0,0,0,0,0,0,0,0,0,0,0,0,0,0,0,0,0,0,0,0,0,0,0,0,0,0,0,0,0,0,0,0,0,0,0,0,0,0,0,0,0,0,0,0,0,0,0,0,0,0,0,0,0,0,0,0,0,0,0,0,0,0,0,0,0,0,0,0,0,0,0,0,0,0,0,0,0,0,0,0,0,0,0,0,0,0,0,0,0,0,0,0,0,0,0],"trees":[{"base_weights":[-9.1371837E-4,-1.9607608E-1,7.847649E-2,-1.5070082E-1,-1.5490624E-2,1.6105022E-1,-1.3075511E-1,-2.7104007E-2,-1.6960356E-1,1.8067351E-1,-1.5221985E-1,-5.84259E-3,-1.4938548E-1,-4.2912763E-2,7.05297E-2,-1.8412857E-1,-7.610568E-2,3.0356443E-1,1.6408761E-1,-3.2534212E-2,-1.7004497E-1,1.0825495E-2,-1.400158E-2,-1.6951469E-1,-5.4678507E-2,-2.5415306E-3,4.748264E-3,2.5418426E-3,4.796052E-3,-1.9193839E-1,-4.80418E-2,-1.10663764E-1,-5.049421E-2,2.8307086E-1,2.0099686E-2,1.4571299E-1,2.585939E-1,-2.280635E-3,2.1705702E-3,-1.8438512E-1,-6.8217985E-2,9.7485974E-2,-1.1424379E-2,-9.283081E-2,-1.875378E-1,9.6664265E-2,-7.83511E-2,-1.0229609E-2,-5.546934E-3,-2.9180334E-3,1.5258301E-5,-3.7795478E-3,-8.590527E-3,1.0084889E-3,-3.733141E-3,1.2718864E-2,1.693756E-2,5.912324E-3,1.0254762E-2,1.6904145E-2,1.1977948E-2,-9.52073E-3,-2.582996E-3,-3.9229817E-3,-0E0,-1.5553184E-3,1.5401204E-2,-3.0059733E-3,2.869387E-3,-9.515785E-3,7.484609E-3,-1.1921501E-2,-8.062375E-3,-3.6224697E-3,1.3663786E-2,-5.792767E-3,-8.2912314E-4],"categories":[],"categories_nodes":[],"categories_segments":[],"categories_sizes":[],"default_left":[0,0,0,0,0,0,0,0,0,0,0,0,0,0,0,0,0,0,0,0,0,0,0,0,0,0,0,0,0,0,0,0,0,0,0,0,0,0,0,0,0,0,0,0,0,0,0,0,0,0,0,0,0,0,0,0,0,0,0,0,0,0,0,0,0,0,0,0,0,0,0,0,0,0,0,0,0],"id":0,"left_children":[1,3,5,7,-1,9,11,13,15,17,19,21,23,25,27,29,31,33,35,37,39,41,-1,43,45,-1,-1,-1,-1,47,49,51,53,55,-1,57,59,-1,-1,61,63,65,67,69,71,73,75,-1,-1,-1,-1,-1,-1,-1,-1,-1,-1,-1,-1,-1,-1,-1,-1,-1,-1,-1,-1,-1,-1,-1,-1,-1,-1,-1,-1,-1,-1],"loss_changes":[1.7108069E2,1.6385742E1,1.3561424E2,5.3142166E0,0E0,3.462787E1,5.1522408E0,4.7102252E-1,2.6502762E0,1.0700058E1,6.825018E-1,1.3553118E0,3.651432E0,2.886218E-1,1.4490485E-3,1.7873802E0,2.1638358E-1,1.0844879E0,8.031418E0,4.6896655E-2,3.8270378E-1,5.380425E-1,0E0,2.154831E0,1.2274354E0,0E0,0E0,0E0,0E0,1.6051521E0,5.321753E-2,2.024666E-1,2.767956E-1,6.9169235E-1,0E0,6.3256073E0,1.0081482E0,0E0,0E0,1.6682243E-1,2.6304826E-2,1.5804679E0,7.3420024E-1,7.2671027E0,1.6435547E0,1.4137821E0,6.7054415E-1,0E0,0E0,0E0,0E0,0E0,0E0,0E0,0E0,0E0,0E0,0E0,0E0,0E0,0E0,0E0,0E0,0E0,0E0,0E0,0E0,0E0,0E0,0E0,0E0,0E0,0E0,0E0,0E0,0E0,0E0],"parents":[2147483647,0,0,1,1,2,2,3,3,5,5,6,6,7,7,8,8,9,9,10,10,11,11,12,12,13,13,14,14,15,15,16,16,17,17,18,18,19,19,20,20,21,21,23,23,24,24,29,29,30,30,31,31,32,32,33,33,35,35,36,36,39,39,40,40,41,41,42,42,43,43,44,44,45,45,46,46],"right_children":[2,4,6,8,-1,10,12,14,16,18,20,22,24,26,28,30,32,34,36,38,40,42,-1,44,46,-1,-1,-1,-1,48,50,52,54,56,-1,58,60,-1,-1,62,64,66,68,70,72,74,76,-1,-1,-1,-1,-1,-1,-1,-1,-1,-1,-1,-1,-1,-1,-1,-1,-1,-1,-1,-1,-1,-1,-1,-1,-1,-1,-1,-1,-1,-1],"split_conditions":[7E0,1E0,1E0,1E0,-1.5490624E-2,2.3E1,1E0,1E0,1E0,1E0,1E0,2.3E1,1E0,1E0,2E0,1E0,4E0,1E0,1E0,1E0,7E0,1E1,-1.400158E-2,1E1,1E1,-2.5415306E-3,4.748264E-3,2.5418426E-3,4.796052E-3,7E0,7E0,3E0,5E0,1.8E1,2.0099686E-2,1.8E1,1E1,-2.280635E-3,2.1705702E-3,1E0,1E0,9E0,1.8E1,9E0,1.5E1,9E0,1.8E1,-1.0229609E-2,-5.546934E-3,-2.9180334E-3,1.5258301E-5,-3.7795478E-3,-8.590527E-3,1.0084889E-3,-3.733141E-3,1.2718864E-2,1.693756E-2,5.912324E-3,1.0254762E-2,1.6904145E-2,1.1977948E-2,-9.52073E-3,-2.582996E-3,-3.9229817E-3,-0E0,-1.5553184E-3,1.5401204E-2,-3.0059733E-3,2.869387E-3,-9.515785E-3,7.484609E-3,-1.1921501E-2,-8.062375E-3,-3.6224697E-3,1.3663786E-2,-5.792767E-3,-8.2912314E-4],"split_indices":[0,3,3,7,0,0,7,6,6,7,7,0,6,5,6,5,7,6,6,6,7,0,0,0,0,0,0,0,0,7,7,7,7,0,0,0,0,0,0,5,6,0,0,0,0,0,0,0,0,0,0,0,0,0,0,0,0,0,0,0,0,0,0,0,0,0,0,0,0,0,0,0,0,0,0,0,0],"split_type":[0,0,0,0,0,0,0,0,0,0,0,0,0,0,0,0,0,0,0,0,0,0,0,0,0,0,0,0,0,0,0,0,0,0,0,0,0,0,0,0,0,0,0,0,0,0,0,0,0,0,0,0,0,0,0,0,0,0,0,0,0,0,0,0,0,0,0,0,0,0,0,0,0,0,0,0,0],"sum_hessian":[1.1039E4,3.192E3,7.847E3,2.284E3,9.08E2,5.627E3,2.22E3,3.04E2,1.98E3,5.296E3,3.31E2,2.89E2,1.931E3,2.63E2,4.1E1,1.712E3,2.68E2,6.27E2,4.669E3,4.4E1,2.87E2,2.73E2,1.6E1,1.591E3,3.4E2,2.5E2,1.3E1,2.7E1,1.4E1,1.618E3,9.4E1,1.11E2,1.57E2,5.23E2,1.04E2,3.912E3,7.57E2,3.9E1,5E0,2.5E2,3.7E1,5.6E1,2.17E2,3.05E2,1.286E3,4.5E1,2.95E2,1.397E3,2.21E2,7.9E1,1.5E1,7.3E1,3.8E1,3.9E1,1.18E2,3.5E2,1.73E2,2.678E3,1.234E3,1.42E2,6.15E2,2.38E2,1.2E1,3.2E1,5E0,3.5E1,2.1E1,1.28E2,8.9E1,2.18E2,8.7E1,4.34E2,8.52E2,2.3E1,2.2E1,1.82E2,1.13E2],"tree_param":{"num_deleted":"0","num_feature":"8","num_nodes":"77","size_leaf_vector":"1"}},{"base_weights":[2.0171131E-3,-7.009279E-2,1.7584601E-1,-7.8594955E-3,-2.3088394E-1,2.5558263E-1,-3.2827694E-2,1.1373182E-1,-2.4891527E-2,-8.4054405E-3,-2.3975864E-1,1.8571319E-2,2.3935725E-1,4.625907E-3,-5.233348E-2,5.2444763E-3,1.32721765E-2,-3.7910264E-2,5.2822858E-2,-2.4743333E-1,-9.8043475E-3,2.2593749E-1,3.181066E-1,-6.558979E-2,2.7372096E-2,-2.265903E-2,-1.1314311E-1,2.3284375E-3,8.661312E-3,-2.4189138E-1,-1.3764975E-2,2.1916445E-1,1.6987197E-2,1.5539782E-2,2.0739393E-2,-5.429389E-2,-5.757833E-3,1.763681E-3,7.5133826E-4,-2.8598716E-3,1.3734276E-3,-5.9412466E-3,6.5070594E-4,-1.2811515E-2,-1.09662535E-2,1.1560441E-2,7.918302E-3,-3.995143E-3,-7.678045E-4],"categories":[],"categories_nodes":[],"categories_segments":[],"categories_sizes":[],"default_left":[0,0,0,0,0,0,0,0,0,0,0,0,0,0,0,0,0,0,0,0,0,0,0,0,0,0,0,0,0,0,0,0,0,0,0,0,0,0,0,0,0,0,0,0,0,0,0,0,0],"id":1,"left_children":[1,3,5,7,9,11,13,15,17,-1,19,-1,21,-1,23,-1,-1,25,27,29,-1,31,33,35,37,39,41,-1,-1,43,-1,45,-1,-1,-1,47,-1,-1,-1,-1,-1,-1,-1,-1,-1,-1,-1,-1,-1],"loss_changes":[1.3923424E2,7.8525826E1,5.4223663E1,1.1717579E1,1.138977E0,4.280258E0,2.2037406E0,8.6745167E-1,5.0258403E0,0E0,5.489731E-1,0E0,2.0623474E0,0E0,8.308234E-1,0E0,0E0,4.867163E0,5.0610054E-1,1.3233948E-1,0E0,1.2370834E0,9.16481E-3,3.524971E-1,5.2676275E-3,6.1351705E0,5.2535915E-1,0E0,0E0,3.379364E-1,0E0,1.153183E0,0E0,0E0,0E0,5.3768337E-1,0E0,0E0,0E0,0E0,0E0,0E0,0E0,0E0,0E0,0E0,0E0,0E0,0E0],"parents":[2147483647,0,0,1,1,2,2,3,3,4,4,5,5,6,6,7,7,8,8,10,10,12,12,14,14,17,17,18,18,19,19,21,21,22,22,23,23,24,24,25,25,26,26,29,29,31,31,35,35],"right_children":[2,4,6,8,10,12,14,16,18,-1,20,-1,22,-1,24,-1,-1,26,28,30,-1,32,34,36,38,40,42,-1,-1,44,-1,46,-1,-1,-1,48,-1,-1,-1,-1,-1,-1,-1,-1,-1,-1,-1,-1,-1],"split_conditions":[1E0,5E0,5E0,1E0,1E0,1E0,1E0,1E0,7E0,-8.4054405E-3,7E0,1.8571319E-2,7E0,4.625907E-3,7E0,5.2444763E-3,1.32721765E-2,6E0,1E0,6E0,-9.8043475E-3,1E0,1E0,6E0,6E0,4E0,1E0,2.3284375E-3,8.661312E-3,4E0,-1.3764975E-2,6E0,1.6987197E-2,1.5539782E-2,2.0739393E-2,4E0,-5.757833E-3,1.763681E-3,7.5133826E-4,-2.8598716E-3,1.3734276E-3,-5.9412466E-3,6.5070594E-4,-1.2811515E-2,-1.09662535E-2,1.1560441E-2,7.918302E-3,-3.995143E-3,-7.678045E-4],"split_indices":[4,2,2,7,7,7,7,5,7,0,7,0,7,0,7,0,0,7,5,7,0,5,5,7,2,7,5,0,0,7,0,7,0,0,0,7,0,0,0,0,0,0,0,0,0,0,0,0,0],"split_type":[0,0,0,0,0,0,0,0,0,0,0,0,0,0,0,0,0,0,0,0,0,0,0,0,0,0,0,0,0,0,0,0,0,0,0,0,0,0,0,0,0,0,0,0,0,0,0,0,0],"sum_hessian":[1.1105E4,7.849E3,3.256E3,5.66E3,2.189E3,2.356E3,9E2,6.94E2,4.966E3,2.75E2,1.914E3,2.86E2,2.07E3,1.2E2,7.8E2,6.58E2,3.6E1,4.255E3,7.11E2,1.622E3,2.92E2,1.773E3,2.97E2,6.7E2,1.1E2,3.54E3,7.15E2,6.78E2,3.3E1,1.364E3,2.58E2,1.677E3,9.6E1,2.81E2,1.6E1,5.49E2,1.21E2,6.1E1,4.9E1,2.097E3,1.443E3,6.85E2,3E1,8.25E2,5.39E2,1.396E3,2.81E2,3.29E2,2.2E2],"tree_param":{"num_deleted":"0","num_feature":"8","num_nodes":"49","size_leaf_vector":"1"}},{"base_weights":[1.0751864E-3,-1.8276238E-1,7.626851E-2,-1.4334431E-1,-1.4130264E-2,1.4872162E-1,-1.13981135E-1,-2.9680125E-2,-1.5992181E-1,8.428114E-2,2.392971E-1,-1.7245072E-1,-3.178239E-2,-1.5805349E-3,-1.9522255E-2,-1.7227882E-1,-8.5177526E-2,1.0924681E-1,-1.397629E-1,2.6109797E-1,1.15968816E-1,-7.037905E-2,-1.8731469E-1,-1.5191838E-1,-1.0833275E-2,-1.1797762E-3,-0E0,-1.6001265E-1,-1.1341993E-2,-4.7685723E-3,-3.4957186E-3,2.2444099E-1,9.294925E-2,-2.1150252E-3,-1.544973E-1,2.1751224E-1,3.4997535E-1,1.1606996E-2,9.8148815E-2,-4.5818344E-2,-1.3006406E-2,-1.7560248E-1,-1.4516278E-2,-2.3417698E-2,-1.65999E-1,1.8350649E-1,-5.3035036E-2,-9.589714E-3,-5.5262996E-3,9.903397E-3,1.2614198E-2,3.9963755E-3,8.523052E-3,-8.421199E-3,-3.8687408E-3,1.4955183E-2,6.6680717E-3,2.271833E-2,1.6716644E-2,4.1388418E-3,9.503125E-3,-3.4428816E-3,-6.830426E-4,-9.388163E-3,-5.5994396E-3,-1.801297E-3,-0E0,-9.07397E-3,-4.017666E-3,1.3979978E-2,8.383139E-3,-7.070294E-3,2.3781984E-4],"categories":[],"categories_nodes":[],"categories_segments":[],"categories_sizes":[],"default_left":[0,0,0,0,0,0,0,0,0,0,0,0,0,0,0,0,0,0,0,0,0,0,0,0,0,0,0,0,0,0,0,0,0,0,0,0,0,0,0,0,0,0,0,0,0,0,0,0,0,0,0,0,0,0,0,0,0,0,0,0,0,0,0,0,0,0,0,0,0,0,0,0,0],"id":2,"left_children":[1,3,5,7,-1,9,11,13,15,17,19,21,23,-1,25,27,29,31,33,35,37,39,41,43,45,-1,-1,47,-1,-1,-1,49,51,-1,53,55,57,-1,59,61,-1,63,-1,65,67,69,71,-1,-1,-1,-1,-1,-1,-1,-1,-1,-1,-1,-1,-1,-1,-1,-1,-1,-1,-1,-1,-1,-1,-1,-1,-1,-1],"loss_changes":[1.5272374E2,1.2538414E1,1.0811597E2,4.313877E0,0E0,3.3100105E1,1.0369749E1,5.465746E-5,1.8142014E0,1.8587927E1,6.277252E0,1.8772545E0,2.2496645E0,0E0,4.6190657E-3,1.0768051E0,2.1613836E-2,5.5589027E0,4.5198965E-1,7.630188E0,6.832366E-1,7.1712714E-1,1.2307701E0,2.1781683E-1,6.303623E0,0E0,0E0,2.166172E0,0E0,0E0,0E0,1.7595291E-1,2.6068115E0,0E0,2.7171755E-1,9.172207E0,8.420639E-1,0E0,3.9780712E-1,9.897682E-2,0E0,7.1639824E-1,0E0,3.4549842E-3,1.1700797E-1,1.1697388E-1,3.2471175E0,0E0,0E0,0E0,0E0,0E0,0E0,0E0,0E0,0E0,0E0,0E0,0E0,0E0,0E0,0E0,0E0,0E0,0E0,0E0,0E0,0E0,0E0,0E0,0E0,0E0,0E0],"parents":[2147483647,0,0,1,1,2,2,3,3,5,5,6,6,7,7,8,8,9,9,10,10,11,11,12,12,14,14,15,15,16,16,17,17,18,18,19,19,20,20,21,21,22,22,23,23,24,24,27,27,31,31,32,32,34,34,35,35,36,36,38,38,39,39,41,41,43,43,44,44,45,45,46,46],"right_children":[2,4,6,8,-1,10,12,14,16,18,20,22,24,-1,26,28,30,32,34,36,38,40,42,44,46,-1,-1,48,-1,-1,-1,50,52,-1,54,56,58,-1,60,62,-1,64,-1,66,68,70,72,-1,-1,-1,-1,-1,-1,-1,-1,-1,-1,-1,-1,-1,-1,-1,-1,-1,-1,-1,-1,-1,-1,-1,-1,-1,-1],"split_conditions":[7E0,5E0,5E0,1E0,-1.4130264E-2,1E0,1E0,4E0,7E0,2.3E1,2E1,1E0,9E0,-1.5805349E-3,6E0,6E0,3E0,1E0,1E0,1.8E1,1E0,2.3E1,2.3E1,1E0,1E1,-1.1797762E-3,-0E0,4E0,-1.1341993E-2,-4.7685723E-3,-3.4957186E-3,1.5E1,7E0,-2.1150252E-3,7E0,1E1,1E0,1.1606996E-2,7E0,1.5E1,-1.3006406E-2,7E0,-1.4516278E-2,6E0,7E0,1E0,1.8E1,-9.589714E-3,-5.5262996E-3,9.903397E-3,1.2614198E-2,3.9963755E-3,8.523052E-3,-8.421199E-3,-3.8687408E-3,1.4955183E-2,6.6680717E-3,2.271833E-2,1.6716644E-2,4.1388418E-3,9.503125E-3,-3.4428816E-3,-6.830426E-4,-9.388163E-3,-5.5994396E-3,-1.801297E-3,-0E0,-9.07397E-3,-4.017666E-3,1.3979978E-2,8.383139E-3,-7.070294E-3,2.3781984E-4],"split_indices":[0,2,2,7,0,4,4,2,7,0,0,7,0,0,0,7,2,7,7,0,7,0,0,7,0,0,0,7,0,0,0,0,7,0,7,0,7,0,7,0,0,7,0,2,7,7,0,0,0,0,0,0,0,0,0,0,0,0,0,0,0,0,0,0,0,0,0,0,0,0,0,0,0],"split_type":[0,0,0,0,0,0,0,0,0,0,0,0,0,0,0,0,0,0,0,0,0,0,0,0,0,0,0,0,0,0,0,0,0,0,0,0,0,0,0,0,0,0,0,0,0,0,0,0,0,0,0,0,0,0,0,0,0,0,0,0,0,0,0,0,0,0,0,0,0,0,0,0,0],"sum_hessian":[1.1047E4,3.206E3,7.841E3,2.301E3,9.05E2,5.679E3,2.162E3,2.94E2,2.007E3,3.32E3,2.359E3,1.262E3,9E2,2.37E2,5.7E1,1.72E3,2.87E2,2.988E3,3.32E2,2.003E3,3.56E2,1.62E2,1.1E3,1.32E2,7.68E2,4.7E1,1E1,1.409E3,3.11E2,1.65E2,1.22E2,3.68E2,2.62E3,4.5E1,2.87E2,1.347E3,6.56E2,4.5E1,3.11E2,1.45E2,1.7E1,9.91E2,1.09E2,1.4E1,1.18E2,1.36E2,6.32E2,8.55E2,5.54E2,1.95E2,1.73E2,2.246E3,3.74E2,2.41E2,4.6E1,6.82E2,6.65E2,8.1E1,5.75E2,2.69E2,4.2E1,8.2E1,6.3E1,8.29E2,1.62E2,8E0,6E0,9.8E1,2E1,1.6E1,1.2E2,2.5E2,3.82E2],"tree_param":{"num_deleted":"0","num_feature":"8","num_nodes":"73","size_leaf_vector":"1"}},{"base_weights":[1.2854185E-3,-1.7254074E-1,7.1313076E-2,-8.987699E-2,-1.8451127E-1,9.953431E-3,1.5847066E-1,-1.0558113E-1,5.1483227E-4,-1.8973483E-1,-2.9083744E-2,3.0280616E-2,-1.7650136E-1,4.1455824E-2,1.7853238E-1,-5.7215095E-3,3.8916369E-3,-1.3088836E-2,3.582216E-2,-2.0043708E-1,-1.2468103E-1,-3.9993513E-2,4.7409846E-3,1.458742E-1,1.4069544E-2,-1.8187016E-1,-3.8466584E-2,2.1601794E-2,1.6172835E-1,3.7136108E-1,1.3595407E-1,-5.3729624E-3,-2.0910962E-3,-0E0,7.052523E-2,-2.0816694E-1,-7.624569E-3,-1.3196214E-1,-7.387316E-2,-4.7356643E-2,-0E0,1.2766926E-1,2.415626E-1,6.7355908E-3,2.3368083E-1,-1.8705413E-1,-2.7526015E-2,-0E0,-2.6599944E-3,7.137215E-3,1.1257115E-3,9.173478E-3,1.2346506E-1,3.563541E-1,2.20303E-2,5.683708E-2,1.8848786E-1,-8.783444E-4,1.7555282E-3,2.4694686E-3,-2.2631504E-3,5.011132E-3,-0E0,-1.0006421E-2,-1.23905195E-2,-4.7342097E-3,-6.901753E-3,-2.673625E-3,-7.2104335E-3,-1.1467863E-3,-4.385656E-3,-3.4637988E-4,1.0030858E-3,6.0107782E-3,1.5431674E-2,9.649333E-3,1.4639735E-2,-4.6485927E-4,4.475316E-3,7.2935596E-3,1.225222E-2,-5.589362E-3,-9.876161E-3,4.7874186E-4,-3.427861E-3,-1.5427956E-3,1.0519631E-3,-1.9894434E-4,8.510652E-3,4.617913E-3,8.560907E-3,1.7249793E-2,2.103409E-2,8.832093E-3,1.9515274E-3,1.3126211E-2,2.3964315E-3],"categories":[],"categories_nodes":[],"categories_segments":[],"categories_sizes":[],"default_left":[0,0,0,0,0,0,0,0,0,0,0,0,0,0,0,0,0,0,0,0,0,0,0,0,0,0,0,0,0,0,0,0,0,0,0,0,0,0,0,0,0,0,0,0,0,0,0,0,0,0,0,0,0,0,0,0,0,0,0,0,0,0,0,0,0,0,0,0,0,0,0,0,0,0,0,0,0,0,0,0,0,0,0,0,0,0,0,0,0,0,0,0,0,0,0,0,0],"id":3,"left_children":[1,3,5,7,9,11,13,15,17,19,21,23,25,27,29,-1,-1,31,33,35,37,39,-1,41,43,45,47,49,51,53,55,57,-1,59,61,63,-1,65,67,69,71,73,75,77,79,81,83,85,-1,-1,87,-1,89,91,-1,93,95,-1,-1,-1,-1,-1,-1,-1,-1,-1,-1,-1,-1,-1,-1,-1,-1,-1,-1,-1,-1,-1,-1,-1,-1,-1,-1,-1,-1,-1,-1,-1,-1,-1,-1,-1,-1,-1,-1,-1,-1],"loss_changes":[1.3471677E2,3.100708E0,4.2176975E1,5.8546925E-1,2.2247696E0,1.754647E1,7.6211624E0,5.741389E-1,3.1560756E-2,1.8104553E0,1.22671306E-1,7.81109E0,3.081627E-1,1.1219747E0,2.2731682E1,0E0,0E0,4.3672407E-3,2.5356753E-2,7.849808E-1,1.1135435E-1,2.8400853E-2,0E0,8.258848E-1,5.8789134E0,3.2304287E-1,8.679077E-3,1.0099088E0,2.3911E-3,2.8494263E-1,9.441151E0,1.712758E-2,0E0,2.448899E-2,2.0573966E-2,5.356293E-1,0E0,3.8818836E-2,4.7134995E-2,5.9853494E-2,2.7987673E-3,5.05414E-1,9.4008446E-2,4.718534E0,4.290819E-2,2.7951527E-1,3.0911345E-2,5.578951E-3,0E0,0E0,3.2370925E-1,0E0,9.0685487E-4,8.444214E-2,0E0,1.9171147E0,1.4202866E1,0E0,0E0,0E0,0E0,0E0,0E0,0E0,0E0,0E0,0E0,0E0,0E0,0E0,0E0,0E0,0E0,0E0,0E0,0E0,0E0,0E0,0E0,0E0,0E0,0E0,0E0,0E0,0E0,0E0,0E0,0E0,0E0,0E0,0E0,0E0,0E0,0E0,0E0,0E0,0E0],"parents":[2147483647,0,0,1,1,2,2,3,3,4,4,5,5,6,6,7,7,8,8,9,9,10,10,11,11,12,12,13,13,14,14,17,17,18,18,19,19,20,20,21,21,23,23,24,24,25,25,26,26,27,27,28,28,29,29,30,30,31,31,33,33,34,34,35,35,37,37,38,38,39,39,40,40,41,41,42,42,43,43,44,44,45,45,46,46,47,47,50,50,52,52,53,53,55,55,56,56],"right_children":[2,4,6,8,10,12,14,16,18,20,22,24,26,28,30,-1,-1,32,34,36,38,40,-1,42,44,46,48,50,52,54,56,58,-1,60,62,64,-1,66,68,70,72,74,76,78,80,82,84,86,-1,-1,88,-1,90,92,-1,94,96,-1,-1,-1,-1,-1,-1,-1,-1,-1,-1,-1,-1,-1,-1,-1,-1,-1,-1,-1,-1,-1,-1,-1,-1,-1,-1,-1,-1,-1,-1,-1,-1,-1,-1,-1,-1,-1,-1,-1,-1],"split_conditions":[7E0,1E0,1E0,1E0,1E0,2.3E1,9E0,1E0,2E0,1E0,1E0,1E0,2E0,1E0,1E1,-5.7215095E-3,3.8916369E-3,6E0,5E0,7E0,7E0,7E0,4.7409846E-3,1E0,1E0,1E0,3E0,1E0,5E0,1E0,1.8E1,5E0,-2.0910962E-3,3E0,6E0,6E0,-7.624569E-3,1E0,6E0,5E0,4E0,1E0,1.5E1,1E0,2E0,1E0,3E0,2E0,-2.6599944E-3,7.137215E-3,1E0,9.173478E-3,7E0,7E0,2.20303E-2,1E0,2E1,-8.783444E-4,1.7555282E-3,2.4694686E-3,-2.2631504E-3,5.011132E-3,-0E0,-1.0006421E-2,-1.23905195E-2,-4.7342097E-3,-6.901753E-3,-2.673625E-3,-7.2104335E-3,-1.1467863E-3,-4.385656E-3,-3.4637988E-4,1.0030858E-3,6.0107782E-3,1.5431674E-2,9.649333E-3,1.4639735E-2,-4.6485927E-4,4.475316E-3,7.2935596E-3,1.225222E-2,-5.589362E-3,-9.876161E-3,4.7874186E-4,-3.427861E-3,-1.5427956E-3,1.0519631E-3,-1.9894434E-4,8.510652E-3,4.617913E-3,8.560907E-3,1.7249793E-2,2.103409E-2,8.832093E-3,1.9515274E-3,1.3126211E-2,2.3964315E-3],"split_indices":[0,7,4,6,5,0,0,5,6,6,6,7,6,6,0,0,0,0,0,7,7,7,0,6,5,5,7,7,7,6,0,0,0,0,0,7,0,0,0,7,0,5,0,6,7,7,7,7,0,0,5,0,7,7,0,7,0,0,0,0,0,0,0,0,0,0,0,0,0,0,0,0,0,0,0,0,0,0,0,0,0,0,0,0,0,0,0,0,0,0,0,0,0,0,0,0,0],"split_type":[0,0,0,0,0,0,0,0,0,0,0,0,0,0,0,0,0,0,0,0,0,0,0,0,0,0,0,0,0,0,0,0,0,0,0,0,0,0,0,0,0,0,0,0,0,0,0,0,0,0,0,0,0,0,0,0,0,0,0,0,0,0,0,0,0,0,0,0,0,0,0,0,0,0,0,0,0,0,0,0,0,0,0,0,0,0,0,0,0,0,0,0,0,0,0,0,0],"sum_hessian":[1.1066E4,3.177E3,7.889E3,4.04E2,2.773E3,4.631E3,3.258E3,3.45E2,5.9E1,2.682E3,9.1E1,4.177E3,4.54E2,4.78E2,2.78E3,3.3E2,1.5E1,4.1E1,1.8E1,2.3E3,3.82E2,8.5E1,6E0,5.12E2,3.665E3,4.36E2,1.8E1,4.12E2,6.6E1,5.01E2,2.279E3,3.6E1,5E0,9E0,9E0,1.976E3,3.24E2,3.31E2,5.1E1,7.3E1,1.2E1,4.33E2,7.9E1,3.548E3,1.17E2,4.21E2,1.5E1,6E0,1.2E1,5.8E1,3.54E2,3.8E1,2.8E1,4.18E2,8.3E1,9.11E2,1.368E3,3E1,6E0,4E0,5E0,6E0,3E0,1.65E3,3.26E2,5.1E1,2.8E2,4.2E1,9E0,4.8E1,2.5E1,7E0,5E0,4.18E2,1.5E1,4.4E1,3.5E1,2.972E3,5.76E2,1.6E1,1.01E2,5.4E1,3.67E2,7E0,8E0,3E0,3E0,3.44E2,1E1,2E1,8E0,3.62E2,5.6E1,1.16E2,7.95E2,8.95E2,4.73E2],"tree_param":{"num_deleted":"0","num_feature":"8","num_nodes":"97","size_leaf_vector":"1"}},{"base_weights":[-4.8971764E-4,-1.6438395E-1,6.6946305E-2,-1.266562E-1,-1.3003859E-2,1.3779126E-1,-1.1409043E-1,-1.3986956E-1,-4.5418367E-2,7.7940434E-2,2.2301207E-1,-1.663618E-1,-4.275993E-2,-7.198488E-3,-6.192903E-3,-5.9402015E-2,-8.820418E-3,1.01385616E-1,-1.3067654E-1,1.14448056E-1,2.409158E-1,-1.5585972E-1,-1.3267465E-2,-6.516642E-2,6.0154095E-2,-2.3224903E-3,-3.231166E-3,-3.6454473E-2,6.0272478E-3,8.423345E-2,1.9340324E-1,-7.0446483E-3,-2.490944E-3,9.8761044E-2,9.547267E-3,2.1603407E-2,2.007536E-1,-1.6829786E-1,-9.298778E-2,-7.832811E-3,-4.5682523E-2,8.31948E-2,-3.4561635E-3,-0E0,-2.3183015E-3,-8.101345E-5,6.660457E-4,2.8942109E-3,5.868941E-3,8.588678E-3,1.1242047E-2,4.6193316E-3,6.2247682E-3,6.1638174E-3,1.2652412E-2,-9.374029E-3,-7.235297E-3,-5.4463116E-3,-2.6623744E-3,6.6562505E-3,-4.1454914E-3,1.7925075E-3,7.673838E-3],"categories":[],"categories_nodes":[],"categories_segments":[],"categories_sizes":[],"default_left":[0,0,0,0,0,0,0,0,0,0,0,0,0,0,0,0,0,0,0,0,0,0,0,0,0,0,0,0,0,0,0,0,0,0,0,0,0,0,0,0,0,0,0,0,0,0,0,0,0,0,0,0,0,0,0,0,0,0,0,0,0,0,0],"id":4,"left_children":[1,3,5,7,-1,9,11,13,15,17,19,21,23,-1,-1,25,27,29,31,33,35,37,-1,39,41,-1,-1,43,45,47,49,-1,-1,51,-1,-1,53,55,57,-1,59,61,-1,-1,-1,-1,-1,-1,-1,-1,-1,-1,-1,-1,-1,-1,-1,-1,-1,-1,-1,-1,-1],"loss_changes":[1.21696335E2,1.1517418E1,1.000573E2,2.44936E0,0E0,2.8551216E1,8.152399E0,8.5437775E-2,1.5897995E-1,1.613126E1,4.4307404E0,1.2315826E0,2.1489477E0,0E0,0E0,1.6481876E-3,4.1420456E-2,4.6340313E0,2.489934E-1,3.48176E-1,1.5073647E1,8.5518837E-1,0E0,1.336282E0,5.0161237E-1,0E0,0E0,9.382527E-3,4.482575E-3,2.1599407E0,2.372303E-1,0E0,0E0,1.224947E-2,0E0,0E0,6.5799255E0,3.7184525E-1,1.0022843E-1,0E0,4.219595E0,4.480666E-1,0E0,0E0,0E0,0E0,0E0,0E0,0E0,0E0,0E0,0E0,0E0,0E0,0E0,0E0,0E0,0E0,0E0,0E0,0E0,0E0,0E0],"parents":[2147483647,0,0,1,1,2,2,3,3,5,5,6,6,7,7,8,8,9,9,10,10,11,11,12,12,15,15,16,16,17,17,18,18,19,19,20,20,21,21,23,23,24,24,27,27,28,28,29,29,30,30,33,33,36,36,37,37,38,38,40,40,41,41],"right_children":[2,4,6,8,-1,10,12,14,16,18,20,22,24,-1,-1,26,28,30,32,34,36,38,-1,40,42,-1,-1,44,46,48,50,-1,-1,52,-1,-1,54,56,58,-1,60,62,-1,-1,-1,-1,-1,-1,-1,-1,-1,-1,-1,-1,-1,-1,-1,-1,-1,-1,-1,-1,-1],"split_conditions":[7E0,5E0,5E0,1E0,-1.3003859E-2,1E0,1E0,4E0,2E0,2.3E1,9E0,2.3E1,1E0,-7.198488E-3,-6.192903E-3,2E0,4E0,1E0,1E0,1E0,1E1,1E0,-1.3267465E-2,9E0,2E1,-2.3224903E-3,-3.231166E-3,1E0,3E0,1.5E1,1.6E1,-7.0446483E-3,-2.490944E-3,4E0,9.547267E-3,2.1603407E-2,1.8E1,1.5E1,1.5E1,-7.832811E-3,1E1,1.8E1,-3.4561635E-3,-0E0,-2.3183015E-3,-8.101345E-5,6.660457E-4,2.8942109E-3,5.868941E-3,8.588678E-3,1.1242047E-2,4.6193316E-3,6.2247682E-3,6.1638174E-3,1.2652412E-2,-9.374029E-3,-7.235297E-3,-5.4463116E-3,-2.6623744E-3,6.6562505E-3,-4.1454914E-3,1.7925075E-3,7.673838E-3],"split_indices":[0,2,2,6,0,4,4,2,6,0,0,0,6,0,0,0,0,6,6,6,0,6,0,0,0,0,0,2,2,0,0,0,0,2,0,0,0,0,0,0,0,0,0,0,0,0,0,0,0,0,0,0,0,0,0,0,0,0,0,0,0,0,0],"split_type":[0,0,0,0,0,0,0,0,0,0,0,0,0,0,0,0,0,0,0,0,0,0,0,0,0,0,0,0,0,0,0,0,0,0,0,0,0,0,0,0,0,0,0,0,0,0,0,0,0,0,0,0,0,0,0,0,0,0,0,0,0,0,0],"sum_hessian":[1.1008E4,3.209E3,7.799E3,2.304E3,9.05E2,5.606E3,2.193E3,1.98E3,3.24E2,3.295E3,2.311E3,1.264E3,9.29E2,1.565E3,4.15E2,2.32E2,9.2E1,2.963E3,3.32E2,3.29E2,1.982E3,1.146E3,1.18E2,7.64E2,1.65E2,7.5E1,1.57E2,3.4E1,5.8E1,2.5E3,4.63E2,2.93E2,3.9E1,2.76E2,5.3E1,3.42E2,1.64E3,9.54E2,1.92E2,1.32E2,6.32E2,1.41E2,2.4E1,9E0,2.5E1,2.2E1,3.6E1,1.396E3,1.104E3,2.8E2,1.83E2,2.28E2,4.8E1,6.63E2,9.77E2,5.2E2,4.34E2,1.34E2,5.8E1,1.08E2,5.24E2,8.6E1,5.5E1],"tree_param":{"num_deleted":"0","num_feature":"8","num_nodes":"63","size_leaf_vector":"1"}},{"base_weights":[-1.1613736E-3,-1.5703447E-1,6.29033E-2,-1.2162862E-1,-1.2339833E-2,1.3000324E-1,-1.0916762E-1,-1.4614974E-2,-1.3686751E-1,1.4573641E-1,-1.2243183E-1,-5.273424E-3,-1.2417026E-1,-2.892486E-2,3.2212702E-3,-1.5010308E-1,-5.226951E-2,2.5003096E-1,1.3049692E-1,-2.3798712E-2,-1.3662985E-1,1.0611197E-2,-1.1506782E-2,-1.4073965E-1,-4.698152E-2,-1.7788624E-3,3.5278795E-3,-1.5641494E-1,-2.7335458E-2,-6.262463E-2,5.16439E-4,2.323825E-1,1.6915E-2,1.1426323E-1,2.1544749E-1,-1.62526E-3,1.0046626E-3,-1.4861903E-1,-5.548202E-2,-7.2498047E-3,1.0993783E-1,-7.385124E-2,-1.5642853E-1,-3.5639524E-2,-1.1692523E-2,-8.332862E-3,-4.535538E-3,-1.7695118E-3,7.082218E-4,-2.4431695E-3,-5.8556884E-3,-5.243279E-4,1.4944102E-3,1.4826342E-2,1.0773842E-2,9.397189E-3,4.8593697E-3,9.709621E-3,1.3432609E-2,-8.134215E-3,-3.3928775E-3,-3.100775E-3,-0E0,3.0689414E-3,-1.2510485E-3,1.0458528E-2,4.3783723E-3,-7.803283E-3,5.564516E-3,-9.255633E-3,-5.878886E-3,-3.3666082E-3,1.6329704E-3],"categories":[],"categories_nodes":[],"categories_segments":[],"categories_sizes":[],"default_left":[0,0,0,0,0,0,0,0,0,0,0,0,0,0,0,0,0,0,0,0,0,0,0,0,0,0,0,0,0,0,0,0,0,0,0,0,0,0,0,0,0,0,0,0,0,0,0,0,0,0,0,0,0,0,0,0,0,0,0,0,0,0,0,0,0,0,0,0,0,0,0,0,0],"id":5,"left_children":[1,3,5,7,-1,9,11,13,15,17,19,21,23,25,-1,27,29,31,33,35,37,39,-1,41,43,-1,-1,45,47,49,51,53,-1,55,57,-1,-1,59,61,63,65,67,69,71,-1,-1,-1,-1,-1,-1,-1,-1,-1,-1,-1,-1,-1,-1,-1,-1,-1,-1,-1,-1,-1,-1,-1,-1,-1,-1,-1,-1,-1],"loss_changes":[1.111031E2,1.0233383E1,9.104453E1,3.7776527E0,0E0,2.2551094E1,3.4342155E0,3.285826E-1,2.2516327E0,8.418289E0,4.4703674E-1,1.0280845E0,2.4455872E0,1.6379945E-1,0E0,1.3403854E0,1.5819925E-1,9.2206955E-1,6.372963E0,1.8708702E-2,2.5348425E-1,4.7764707E-1,0E0,1.632925E0,6.9381326E-1,0E0,0E0,1.0843353E0,3.2039836E-2,1.5314192E-1,1.6796576E-2,5.030155E-1,0E0,4.882679E0,7.451744E-1,0E0,0E0,2.5102568E-1,1.5323006E-2,2.6987317E-1,4.302457E-2,4.664345E0,1.3799725E0,7.113172E-1,0E0,0E0,0E0,0E0,0E0,0E0,0E0,0E0,0E0,0E0,0E0,0E0,0E0,0E0,0E0,0E0,0E0,0E0,0E0,0E0,0E0,0E0,0E0,0E0,0E0,0E0,0E0,0E0,0E0],"parents":[2147483647,0,0,1,1,2,2,3,3,5,5,6,6,7,7,8,8,9,9,10,10,11,11,12,12,13,13,15,15,16,16,17,17,18,18,19,19,20,20,21,21,23,23,24,24,27,27,28,28,29,29,30,30,31,31,33,33,34,34,37,37,38,38,39,39,40,40,41,41,42,42,43,43],"right_children":[2,4,6,8,-1,10,12,14,16,18,20,22,24,26,-1,28,30,32,34,36,38,40,-1,42,44,-1,-1,46,48,50,52,54,-1,56,58,-1,-1,60,62,64,66,68,70,72,-1,-1,-1,-1,-1,-1,-1,-1,-1,-1,-1,-1,-1,-1,-1,-1,-1,-1,-1,-1,-1,-1,-1,-1,-1,-1,-1,-1,-1],"split_conditions":[7E0,5E0,5E0,1E0,-1.2339833E-2,2.3E1,1E0,1E0,1E0,1E0,1E0,2.3E1,1E0,1E0,3.2212702E-3,1E0,7E0,1E0,1E0,1E0,1E0,1E0,-1.1506782E-2,1E1,2.3E1,-1.7788624E-3,3.5278795E-3,7E0,7E0,6E0,2E0,1E1,1.6915E-2,1E1,1.8E1,-1.62526E-3,1.0046626E-3,7E0,7E0,1E1,1E1,9E0,1.8E1,1.8E1,-1.1692523E-2,-8.332862E-3,-4.535538E-3,-1.7695118E-3,7.082218E-4,-2.4431695E-3,-5.8556884E-3,-5.243279E-4,1.4944102E-3,1.4826342E-2,1.0773842E-2,9.397189E-3,4.8593697E-3,9.709621E-3,1.3432609E-2,-8.134215E-3,-3.3928775E-3,-3.100775E-3,-0E0,3.0689414E-3,-1.2510485E-3,1.0458528E-2,4.3783723E-3,-7.803283E-3,5.564516E-3,-9.255633E-3,-5.878886E-3,-3.3666082E-3,1.6329704E-3],"split_indices":[0,2,2,7,0,0,7,6,6,7,7,0,6,5,0,5,7,6,6,6,6,6,0,0,0,0,0,7,7,7,6,0,0,0,0,0,0,7,7,0,0,0,0,0,0,0,0,0,0,0,0,0,0,0,0,0,0,0,0,0,0,0,0,0,0,0,0,0,0,0,0,0,0],"split_type":[0,0,0,0,0,0,0,0,0,0,0,0,0,0,0,0,0,0,0,0,0,0,0,0,0,0,0,0,0,0,0,0,0,0,0,0,0,0,0,0,0,0,0,0,0,0,0,0,0,0,0,0,0,0,0,0,0,0,0,0,0,0,0,0,0,0,0,0,0,0,0,0,0],"sum_hessian":[1.1123E4,3.24E3,7.883E3,2.326E3,9.14E2,5.672E3,2.211E3,2.91E2,2.035E3,5.34E3,3.32E2,2.8E2,1.931E3,2.48E2,4.3E1,1.758E3,2.77E2,6.78E2,4.662E3,4.3E1,2.89E2,2.62E2,1.8E1,1.588E3,3.43E2,2.34E2,1.4E1,1.671E3,8.7E1,2.33E2,4.4E1,5.69E2,1.09E2,3.917E3,7.45E2,3.8E1,5E0,2.5E2,3.9E1,2.22E2,4E1,3.04E2,1.284E3,3.25E2,1.8E1,1.443E3,2.28E2,7.5E1,1.2E1,1.89E2,4.4E1,3E1,1.4E1,1.14E2,4.55E2,7.34E2,3.183E3,5.37E2,2.08E2,2.11E2,3.9E1,3.5E1,4E0,4.4E1,1.78E2,5E0,3.5E1,2.11E2,9.3E1,7.35E2,5.49E2,2.23E2,1.02E2],"tree_param":{"num_deleted":"0","num_feature":"8","num_nodes":"73","size_leaf_vector":"1"}},{"base_weights":[-1.02297556E-4,-1.4690025E-1,5.943966E-2,-1.1403155E-1,-1.1722106E-2,1.2428146E-1,-1.03679344E-1,-1.3581951E-2,-1.2882341E-1,6.938823E-2,2.0075963E-1,-1.5257728E-1,-3.4345586E-2,-1.9207159E-2,8.086436E-2,-1.3919713E-1,-6.6507764E-2,8.95125E-2,-1.12750515E-1,2.2030541E-1,9.26143E-2,-6.560229E-2,-1.63975E-1,-1.5245552E-2,-1.4229761E-1,-8.762232E-3,-1.0620411E-3,1.6421928E-4,4.541124E-3,-1.2732615E-1,-1.9577883E-1,-3.5755213E-3,2.3641849E-2,1.9129775E-1,7.462642E-2,-2.2513118E-2,-1.2681541E-1,1.8304348E-1,2.974604E-1,9.933408E-3,7.578882E-2,-4.6349727E-2,-1.0607324E-2,-1.5418597E-1,-1.2344838E-2,-5.9889533E-2,7.304495E-2,-9.4262045E-3,-1.6259283E-1,-0E0,-6.414977E-4,-7.8058443E-3,-4.1884216E-3,-9.991721E-3,-4.633559E-3,-0E0,2.3344338E-3,9.196068E-3,1.4820727E-2,3.3694827E-3,1.0513327E-2,-2.6685894E-3,-6.5208867E-4,-6.867397E-3,-2.8843281E-3,1.2614462E-2,5.663596E-3,1.9791242E-2,1.4219201E-2,2.056926E-3,5.125228E-3,-3.2206122E-3,-9.300611E-4,-8.295479E-3,-4.396155E-3,5.4964557E-4,-6.426645E-3,8.804646E-3,2.9074876E-3,-0E0,-8.589839E-4,-8.615611E-3,-3.5123308E-3],"categories":[],"categories_nodes":[],"categories_segments":[],"categories_sizes":[],"default_left":[0,0,0,0,0,0,0,0,0,0,0,0,0,0,0,0,0,0,0,0,0,0,0,0,0,0,0,0,0,0,0,0,0,0,0,0,0,0,0,0,0,0,0,0,0,0,0,0,0,0,0,0,0,0,0,0,0,0,0,0,0,0,0,0,0,0,0,0,0,0,0,0,0,0,0,0,0,0,0,0,0,0,0],"id":6,"left_children":[1,3,5,7,-1,9,11,13,15,17,19,21,23,25,27,29,31,33,35,37,39,41,43,45,47,49,-1,-1,-1,51,53,-1,55,57,59,61,63,65,67,-1,69,71,-1,73,-1,75,77,79,81,-1,-1,-1,-1,-1,-1,-1,-1,-1,-1,-1,-1,-1,-1,-1,-1,-1,-1,-1,-1,-1,-1,-1,-1,-1,-1,-1,-1,-1,-1,-1,-1,-1,-1],"loss_changes":[9.628686E1,9.085632E0,8.289577E1,3.4222355E0,0E0,2.350219E1,7.532997E0,1.5424022E-1,1.2734032E0,1.19826565E1,4.898781E0,1.2609444E0,1.8872603E0,2.846159E-3,2.6518255E-3,1.1020813E0,1.3771498E-1,4.418314E0,3.946948E-1,5.5956497E0,6.0166836E-1,3.9880532E-1,8.577423E-1,3.1051292E0,3.534038E-1,1.7909892E-3,0E0,0E0,0E0,1.7574921E0,7.600689E-2,0E0,9.054605E-3,1.8744278E-1,2.4807692E0,6.107144E-3,1.7644167E-1,6.4089203E0,6.4647293E-1,0E0,2.7209127E-1,5.966717E-2,0E0,7.6405907E-1,0E0,2.5627465E0,3.7155473E-1,1.469488E-3,7.044792E-2,0E0,0E0,0E0,0E0,0E0,0E0,0E0,0E0,0E0,0E0,0E0,0E0,0E0,0E0,0E0,0E0,0E0,0E0,0E0,0E0,0E0,0E0,0E0,0E0,0E0,0E0,0E0,0E0,0E0,0E0,0E0,0E0,0E0,0E0],"parents":[2147483647,0,0,1,1,2,2,3,3,5,5,6,6,7,7,8,8,9,9,10,10,11,11,12,12,13,13,14,14,15,15,16,16,17,17,18,18,19,19,20,20,21,21,22,22,23,23,24,24,25,25,29,29,30,30,32,32,33,33,34,34,35,35,36,36,37,37,38,38,40,40,41,41,43,43,45,45,46,46,47,47,48,48],"right_children":[2,4,6,8,-1,10,12,14,16,18,20,22,24,26,28,30,32,34,36,38,40,42,44,46,48,50,-1,-1,-1,52,54,-1,56,58,60,62,64,66,68,-1,70,72,-1,74,-1,76,78,80,82,-1,-1,-1,-1,-1,-1,-1,-1,-1,-1,-1,-1,-1,-1,-1,-1,-1,-1,-1,-1,-1,-1,-1,-1,-1,-1,-1,-1,-1,-1,-1,-1,-1,-1],"split_conditions":[7E0,5E0,5E0,1E0,-1.1722106E-2,1E0,1E0,1E0,7E0,2.3E1,2E1,1E0,2E1,1E0,2E0,6E0,1E0,1E0,1E0,1.8E1,1E0,2.3E1,2.3E1,1.8E1,1E0,3E0,-1.0620411E-3,1.6421928E-4,4.541124E-3,4E0,1E0,-3.5755213E-3,4E0,1E0,1E0,1E0,7E0,1E1,1E0,9.933408E-3,4E0,1.5E1,-1.0607324E-2,7E0,-1.2344838E-2,1E1,1E0,6E0,7E0,-0E0,-6.414977E-4,-7.8058443E-3,-4.1884216E-3,-9.991721E-3,-4.633559E-3,-0E0,2.3344338E-3,9.196068E-3,1.4820727E-2,3.3694827E-3,1.0513327E-2,-2.6685894E-3,-6.5208867E-4,-6.867397E-3,-2.8843281E-3,1.2614462E-2,5.663596E-3,1.9791242E-2,1.4219201E-2,2.056926E-3,5.125228E-3,-3.2206122E-3,-9.300611E-4,-8.295479E-3,-4.396155E-3,5.4964557E-4,-6.426645E-3,8.804646E-3,2.9074876E-3,-0E0,-8.589839E-4,-8.615611E-3,-3.5123308E-3],"split_indices":[0,2,2,7,0,4,4,5,7,0,0,7,0,2,0,7,5,7,7,0,7,0,0,0,7,0,0,0,0,7,5,0,0,5,5,2,7,0,7,0,7,0,0,7,0,0,7,2,7,0,0,0,0,0,0,0,0,0,0,0,0,0,0,0,0,0,0,0,0,0,0,0,0,0,0,0,0,0,0,0,0,0,0],"split_type":[0,0,0,0,0,0,0,0,0,0,0,0,0,0,0,0,0,0,0,0,0,0,0,0,0,0,0,0,0,0,0,0,0,0,0,0,0,0,0,0,0,0,0,0,0,0,0,0,0,0,0,0,0,0,0,0,0,0,0,0,0,0,0,0,0,0,0,0,0,0,0,0,0,0,0,0,0,0,0,0,0,0,0],"sum_hessian":[1.1013E4,3.178E3,7.835E3,2.313E3,8.65E2,5.607E3,2.228E3,2.98E2,2.015E3,3.266E3,2.341E3,1.305E3,9.23E2,2.83E2,1.5E1,1.725E3,2.9E2,2.942E3,3.24E2,1.981E3,3.6E2,1.53E2,1.152E3,7.86E2,1.37E2,5.5E1,2.28E2,3E0,1.2E1,1.43E3,2.95E2,2.76E2,1.4E1,3.73E2,2.569E3,4.5E1,2.79E2,1.339E3,6.42E2,4.7E1,3.13E2,1.37E2,1.6E1,1.034E3,1.18E2,5.23E2,2.63E2,1.9E1,1.18E2,1.9E1,3.6E1,8.58E2,5.72E2,2.82E2,1.3E1,7E0,7E0,3.52E2,2.1E1,2.441E3,1.28E2,7E0,3.8E1,2.4E2,3.9E1,6.7E2,6.69E2,7.1E1,5.71E2,1.39E2,1.74E2,8E1,5.7E1,8.76E2,1.58E2,2.57E2,2.66E2,3.1E1,2.32E2,9E0,1E1,1.05E2,1.3E1],"tree_param":{"num_deleted":"0","num_feature":"8","num_nodes":"83","size_leaf_vector":"1"}},{"base_weights":[-6.7358743E-4,-1.4104503E-1,5.707915E-2,-1.0926099E-1,-1.1135738E-2,1.17515564E-1,-9.672974E-2,-1.5831737E-2,-1.2246641E-1,1.314859E-1,-1.0844082E-1,-0E0,-1.1043799E-1,-2.7248511E-2,2.8036388E-3,-1.3383844E-1,-4.7879074E-2,2.2927025E-1,1.1775738E-1,-2.1577565E-2,-1.224869E-1,1.4970682E-2,-1.0367615E-2,-1.2532634E-1,-3.8040727E-2,-1.696354E-3,4.1022347E-3,-1.3969299E-1,-1.9146422E-2,-5.1845334E-2,4.7979797E-3,2.1186413E-1,1.6065648E-2,1.0315729E-1,1.9598524E-1,-1.6757994E-3,2.5455356E-3,-1.334847E-1,-4.797529E-2,-1.1453085E-3,1.0312754E-1,-6.587636E-2,-1.3965906E-1,7.343158E-2,-5.423116E-2,-7.4680187E-3,-4.1084155E-3,-1.2505292E-3,4.4584353E-4,-3.999272E-3,-1.5014171E-3,9.436358E-3,1.2910253E-2,8.609542E-3,4.351995E-3,9.15499E-3,1.3553567E-2,-6.996888E-3,-5.165944E-4,-2.9145395E-3,-0E0,3.0155224E-3,-1.0620587E-3,9.087308E-3,3.7765359E-3,-7.0397006E-3,5.1844097E-3,-8.275857E-3,-5.2730343E-3,-3.3888947E-3,1.1857546E-2,-4.5688227E-3,-1.3884365E-4],"categories":[],"categories_nodes":[],"categories_segments":[],"categories_sizes":[],"default_left":[0,0,0,0,0,0,0,0,0,0,0,0,0,0,0,0,0,0,0,0,0,0,0,0,0,0,0,0,0,0,0,0,0,0,0,0,0,0,0,0,0,0,0,0,0,0,0,0,0,0,0,0,0,0,0,0,0,0,0,0,0,0,0,0,0,0,0,0,0,0,0,0,0],"id":7,"left_children":[1,3,5,7,-1,9,11,13,15,17,19,21,23,25,-1,27,29,31,33,35,37,39,-1,41,43,-1,-1,45,47,49,-1,51,-1,53,55,-1,-1,57,59,61,63,65,67,69,71,-1,-1,-1,-1,-1,-1,-1,-1,-1,-1,-1,-1,-1,-1,-1,-1,-1,-1,-1,-1,-1,-1,-1,-1,-1,-1,-1,-1],"loss_changes":[9.0018524E1,8.345055E0,7.3133095E1,2.8626213E0,0E0,1.7845505E1,2.935503E0,2.3753253E-1,1.7083149E0,7.0800476E0,3.8435984E-1,8.7495196E-1,2.0732098E0,1.8264207E-1,0E0,1.1706161E0,1.5631062E-1,9.247818E-1,5.281349E0,4.150583E-2,2.0653915E-1,3.7828672E-1,0E0,1.3420944E0,6.048604E-1,0E0,0E0,9.010658E-1,1.6314346E-2,1.5051669E-1,0E0,4.9949837E-1,0E0,4.3395576E0,6.131706E-1,0E0,0E0,1.7743683E-1,2.2364415E-2,2.678406E-1,4.9499452E-2,4.032577E0,1.1006203E0,1.0039971E0,5.5033726E-1,0E0,0E0,0E0,0E0,0E0,0E0,0E0,0E0,0E0,0E0,0E0,0E0,0E0,0E0,0E0,0E0,0E0,0E0,0E0,0E0,0E0,0E0,0E0,0E0,0E0,0E0,0E0,0E0],"parents":[2147483647,0,0,1,1,2,2,3,3,5,5,6,6,7,7,8,8,9,9,10,10,11,11,12,12,13,13,15,15,16,16,17,17,18,18,19,19,20,20,21,21,23,23,24,24,27,27,28,28,29,29,31,31,33,33,34,34,37,37,38,38,39,39,40,40,41,41,42,42,43,43,44,44],"right_children":[2,4,6,8,-1,10,12,14,16,18,20,22,24,26,-1,28,30,32,34,36,38,40,-1,42,44,-1,-1,46,48,50,-1,52,-1,54,56,-1,-1,58,60,62,64,66,68,70,72,-1,-1,-1,-1,-1,-1,-1,-1,-1,-1,-1,-1,-1,-1,-1,-1,-1,-1,-1,-1,-1,-1,-1,-1,-1,-1,-1,-1],"split_conditions":[7E0,1E0,1E0,1E0,-1.1135738E-2,2.3E1,1E0,1E0,1E0,1E0,1E0,2.3E1,1E0,1E0,2.8036388E-3,1E0,1E0,1E0,1E0,1E0,1E0,1E0,-1.0367615E-2,1E1,1E1,-1.696354E-3,4.1022347E-3,7E0,7E0,4E0,4.7979797E-3,1.8E1,1.6065648E-2,1E1,7E0,-1.6757994E-3,2.5455356E-3,1E0,7E0,1E1,1E1,9E0,1.8E1,9E0,1.7E1,-7.4680187E-3,-4.1084155E-3,-1.2505292E-3,4.4584353E-4,-3.999272E-3,-1.5014171E-3,9.436358E-3,1.2910253E-2,8.609542E-3,4.351995E-3,9.15499E-3,1.3553567E-2,-6.996888E-3,-5.165944E-4,-2.9145395E-3,-0E0,3.0155224E-3,-1.0620587E-3,9.087308E-3,3.7765359E-3,-7.0397006E-3,5.1844097E-3,-8.275857E-3,-5.2730343E-3,-3.3888947E-3,1.1857546E-2,-4.5688227E-3,-1.3884365E-4],"split_indices":[0,3,3,7,0,0,7,6,6,7,7,0,6,5,0,5,5,6,6,6,6,6,0,0,0,0,0,7,7,7,0,0,0,0,7,0,0,5,7,0,0,0,0,0,0,0,0,0,0,0,0,0,0,0,0,0,0,0,0,0,0,0,0,0,0,0,0,0,0,0,0,0,0],"split_type":[0,0,0,0,0,0,0,0,0,0,0,0,0,0,0,0,0,0,0,0,0,0,0,0,0,0,0,0,0,0,0,0,0,0,0,0,0,0,0,0,0,0,0,0,0,0,0,0,0,0,0,0,0,0,0,0,0,0,0,0,0,0,0,0,0,0,0,0,0,0,0,0,0],"sum_hessian":[1.1101E4,3.236E3,7.865E3,2.332E3,9.04E2,5.647E3,2.218E3,2.9E2,2.042E3,5.319E3,3.28E2,2.76E2,1.942E3,2.52E2,3.8E1,1.77E3,2.72E2,6.52E2,4.667E3,4.7E1,2.81E2,2.58E2,1.8E1,1.609E3,3.33E2,2.39E2,1.3E1,1.683E3,8.7E1,2.66E2,6E0,5.52E2,1E2,3.936E3,7.31E2,4.2E1,5E0,2.43E2,3.8E1,2.18E2,4E1,3.15E2,1.294E3,4.1E1,2.92E2,1.438E3,2.45E2,7.5E1,1.2E1,1.13E2,1.53E2,3.73E2,1.79E2,7.42E2,3.194E3,6.28E2,1.03E2,2.3E2,1.3E1,3.2E1,6E0,5.2E1,1.66E2,8E0,3.2E1,2.19E2,9.6E1,7.33E2,5.61E2,2.2E1,1.9E1,1.68E2,1.24E2],"tree_param":{"num_deleted":"0","num_feature":"8","num_nodes":"73","size_leaf_vector":"1"}},{"base_weights":[-9.96211E-4,-1.3503131E-1,5.3816803E-2,-1.0608783E-1,-1.0603356E-2,1.11020796E-1,-9.0773605E-2,-1.3317108E-2,-1.18970186E-1,5.8847904E-2,1.8512724E-1,-1.3703765E-1,-2.4733257E-2,-1.3725405E-3,6.1392676E-2,-1.3052325E-1,-4.4784937E-2,7.7468075E-2,-1.0508615E-1,7.7392854E-2,2.0261814E-1,-5.395879E-2,-1.4910346E-1,-4.6175484E-2,7.04867E-2,2.1039546E-3,4.2422847E-3,-1.3972074E-1,-3.6522914E-3,-7.161369E-2,-2.29829E-2,6.2516846E-2,1.5710582E-1,-2.5334662E-2,-1.1537046E-1,8.986113E-3,6.2209178E-2,1.891416E-2,1.6528559E-1,-3.6062602E-2,-9.826443E-3,-1.3950661E-1,-1.1487636E-2,-2.9944977E-2,-1.4001642E-1,8.8196896E-2,-6.0864057E-2,-6.4438456E-3,-9.556591E-3,-1.9052908E-3,-6.235033E-3,2.3076981E-3,-2.422976E-3,7.4553685E-3,2.492063E-3,1.2720235E-2,7.111994E-3,-1.716759E-3,2.0751976E-3,-6.3253916E-3,-2.386006E-3,2.394906E-3,6.910458E-3,4.88677E-3,1.056894E-2,-2.5680126E-3,1.4973499E-3,-7.502654E-3,-3.9082603E-3,-3.5805416E-3,2.8419676E-3,-8.5906044E-4,-7.908898E-3,2.0558846E-3,7.379548E-3,1.5772798E-3,-4.245481E-3],"categories":[],"categories_nodes":[],"categories_segments":[],"categories_sizes":[],"default_left":[0,0,0,0,0,0,0,0,0,0,0,0,0,0,0,0,0,0,0,0,0,0,0,0,0,0,0,0,0,0,0,0,0,0,0,0,0,0,0,0,0,0,0,0,0,0,0,0,0,0,0,0,0,0,0,0,0,0,0,0,0,0,0,0,0,0,0,0,0,0,0,0,0,0,0,0,0],"id":8,"left_children":[1,3,5,7,-1,9,11,13,15,17,19,21,23,-1,25,27,29,31,33,35,37,39,41,43,45,-1,-1,47,-1,49,51,53,55,57,59,-1,61,-1,63,65,-1,67,-1,69,71,73,75,-1,-1,-1,-1,-1,-1,-1,-1,-1,-1,-1,-1,-1,-1,-1,-1,-1,-1,-1,-1,-1,-1,-1,-1,-1,-1,-1,-1,-1,-1],"loss_changes":[8.155093E1,7.129734E0,6.516394E1,2.7877064E0,0E0,2.1790245E1,6.802904E0,3.0239773E-1,1.740469E0,1.0124348E1,4.3487854E0,1.2868156E0,1.883297E0,0E0,4.1205734E-3,9.0898514E-1,1.5267247E-1,3.5140667E0,2.6023054E-1,4.7425222E-1,1.3025398E1,4.0085042E-1,8.1645393E-1,1.1272179E0,4.01237E-1,0E0,0E0,7.9688644E-1,0E0,1.9776386E-1,2.8076422E-1,2.7276144E0,6.025295E-1,2.5373042E-2,2.0106721E-1,0E0,2.8800952E-1,0E0,5.1014442E0,1.5716776E-1,0E0,6.292038E-1,0E0,2.337831E0,2.2514296E-1,3.944944E-1,5.2455753E-2,0E0,0E0,0E0,0E0,0E0,0E0,0E0,0E0,0E0,0E0,0E0,0E0,0E0,0E0,0E0,0E0,0E0,0E0,0E0,0E0,0E0,0E0,0E0,0E0,0E0,0E0,0E0,0E0,0E0,0E0],"parents":[2147483647,0,0,1,1,2,2,3,3,5,5,6,6,7,7,8,8,9,9,10,10,11,11,12,12,14,14,15,15,16,16,17,17,18,18,19,19,20,20,21,21,22,22,23,23,24,24,27,27,29,29,30,30,31,31,32,32,33,33,34,34,36,36,38,38,39,39,41,41,43,43,44,44,45,45,46,46],"right_children":[2,4,6,8,-1,10,12,14,16,18,20,22,24,-1,26,28,30,32,34,36,38,40,42,44,46,-1,-1,48,-1,50,52,54,56,58,60,-1,62,-1,64,66,-1,68,-1,70,72,74,76,-1,-1,-1,-1,-1,-1,-1,-1,-1,-1,-1,-1,-1,-1,-1,-1,-1,-1,-1,-1,-1,-1,-1,-1,-1,-1,-1,-1,-1,-1],"split_conditions":[7E0,1E0,1E0,1E0,-1.0603356E-2,1E0,1E0,1E0,1E0,2.3E1,9E0,1E0,1E0,-1.3725405E-3,2E0,7E0,4E0,1E0,1E0,1E0,1E1,2.3E1,2.3E1,2E1,2E1,2.1039546E-3,4.2422847E-3,6E0,-3.6522914E-3,3E0,5E0,1E0,1E0,1E0,7E0,8.986113E-3,1E0,1.891416E-2,1.8E1,1E0,-9.826443E-3,7E0,-1.1487636E-2,1.8E1,1E0,1.8E1,1E0,-6.4438456E-3,-9.556591E-3,-1.9052908E-3,-6.235033E-3,2.3076981E-3,-2.422976E-3,7.4553685E-3,2.492063E-3,1.2720235E-2,7.111994E-3,-1.716759E-3,2.0751976E-3,-6.3253916E-3,-2.386006E-3,2.394906E-3,6.910458E-3,4.88677E-3,1.056894E-2,-2.5680126E-3,1.4973499E-3,-7.502654E-3,-3.9082603E-3,-3.5805416E-3,2.8419676E-3,-8.5906044E-4,-7.908898E-3,2.0558846E-3,7.379548E-3,1.5772798E-3,-4.245481E-3],"split_indices":[0,3,3,7,0,4,4,6,6,0,0,7,6,0,6,7,7,6,7,7,0,0,0,0,0,0,0,7,0,7,7,7,7,6,7,0,6,0,0,6,0,7,0,0,7,0,7,0,0,0,0,0,0,0,0,0,0,0,0,0,0,0,0,0,0,0,0,0,0,0,0,0,0,0,0,0,0],"split_type":[0,0,0,0,0,0,0,0,0,0,0,0,0,0,0,0,0,0,0,0,0,0,0,0,0,0,0,0,0,0,0,0,0,0,0,0,0,0,0,0,0,0,0,0,0,0,0,0,0,0,0,0,0,0,0,0,0,0,0,0,0,0,0,0,0,0,0,0,0,0,0,0,0,0,0,0,0],"sum_hessian":[1.1097E4,3.221E3,7.876E3,2.344E3,8.77E2,5.644E3,2.232E3,2.87E2,2.057E3,3.314E3,2.33E3,1.311E3,9.21E2,2.43E2,4.4E1,1.778E3,2.79E2,2.977E3,3.37E2,3.27E2,2.003E3,1.68E2,1.143E3,7.53E2,1.68E2,2.8E1,1.6E1,1.53E3,2.48E2,1.22E2,1.57E2,2.509E3,4.68E2,4E1,2.97E2,4E1,2.87E2,3.49E2,1.654E3,1.51E2,1.7E1,1.025E3,1.18E2,6.44E2,1.09E2,1.49E2,1.9E1,1.268E3,2.62E2,7.7E1,4.5E1,4.1E1,1.16E2,3.18E2,2.191E3,5.9E1,4.09E2,3.7E1,3E0,2.53E2,4.4E1,2.44E2,4.3E1,6.73E2,9.81E2,1.24E2,2.7E1,8.72E2,1.53E2,4.36E2,2.08E2,1.5E1,9.4E1,8.5E1,6.4E1,3E0,1.6E1],"tree_param":{"num_deleted":"0","num_feature":"8","num_nodes":"77","size_leaf_vector":"1"}},{"base_weights":[-1.571685E-3,-5.122912E-2,1.20619185E-1,-8.249079E-3,-1.6053112E-1,1.7740096E-1,-2.5586765E-2,-2.214573E-2,7.082976E-2,-8.420446E-3,-1.186179E-1,1.6387235E-1,2.4813029E-1,-4.3666378E-2,5.8161225E-2,-2.7627965E-2,4.634978E-3,6.429959E-2,1.1059246E-2,-6.4479234E-3,-4.368031E-3,7.844117E-3,1.4099689E-2,2.2655173E-1,1.3594414E-2,-1.4645193E-3,-2.9969886E-3,1.9012738E-2,4.695358E-3,-1.473324E-3,-2.6228426E-2,5.0477725E-2,4.8610494E-3,1.3236134E-2,1.0477888E-2,-2.609898E-4,3.5762363E-3,-1.0990488E-3,-1.4284888E-3,3.125246E-3,2.1355941E-3],"categories":[],"categories_nodes":[],"categories_segments":[],"categories_sizes":[],"default_left":[0,0,0,0,0,0,0,0,0,0,0,0,0,0,0,0,0,0,0,0,0,0,0,0,0,0,0,0,0,0,0,0,0,0,0,0,0,0,0,0,0],"id":9,"left_children":[1,3,5,7,9,11,13,15,17,-1,19,21,23,25,27,29,-1,31,-1,-1,-1,-1,-1,33,-1,-1,-1,35,-1,-1,37,39,-1,-1,-1,-1,-1,-1,-1,-1,-1],"loss_changes":[6.701076E1,3.6878357E1,2.6510868E1,6.193572E0,6.830101E-1,2.117981E0,1.3532095E0,3.016918E0,7.839422E-1,0E0,8.2167625E-2,1.5087166E0,7.6192856E-2,1.6150582E-1,2.0802772E-1,5.4450035E-3,0E0,3.4844613E-1,0E0,0E0,0E0,0E0,0E0,2.683258E-2,0E0,0E0,0E0,1.06258705E-1,0E0,0E0,2.0581007E-2,4.042101E-2,0E0,0E0,0E0,0E0,0E0,0E0,0E0,0E0,0E0],"parents":[2147483647,0,0,1,1,2,2,3,3,4,4,5,5,6,6,7,7,8,8,10,10,11,11,12,12,13,13,14,14,15,15,17,17,23,23,27,27,30,30,31,31],"right_children":[2,4,6,8,10,12,14,16,18,-1,20,22,24,26,28,30,-1,32,-1,-1,-1,-1,-1,34,-1,-1,-1,36,-1,-1,38,40,-1,-1,-1,-1,-1,-1,-1,-1,-1],"split_conditions":[1E0,5E0,5E0,1E0,1E0,1E0,1E0,1E0,1E0,-8.420446E-3,2E0,1E0,3E0,6E0,6E0,2E0,4.634978E-3,2E0,1.1059246E-2,-6.4479234E-3,-4.368031E-3,7.844117E-3,1.4099689E-2,1E0,1.3594414E-2,-1.4645193E-3,-2.9969886E-3,2E0,4.695358E-3,-1.473324E-3,3E0,2E0,4.8610494E-3,1.3236134E-2,1.0477888E-2,-2.609898E-4,3.5762363E-3,-1.0990488E-3,-1.4284888E-3,3.125246E-3,2.1355941E-3],"split_indices":[4,2,2,6,6,6,6,5,5,0,6,5,2,2,2,2,0,6,0,0,0,0,0,2,0,0,0,6,0,0,2,2,0,0,0,0,0,0,0,0,0],"split_type":[0,0,0,0,0,0,0,0,0,0,0,0,0,0,0,0,0,0,0,0,0,0,0,0,0,0,0,0,0,0,0,0,0,0,0,0,0,0,0,0,0],"sum_hessian":[1.1043E4,7.853E3,3.19E3,5.638E3,2.215E3,2.298E3,8.92E2,4.797E3,8.41E2,1.86E3,3.55E2,1.933E3,3.65E2,7.35E2,1.57E2,4.58E3,2.17E2,8.08E2,3.3E1,2.62E2,9.3E1,1.828E3,1.05E2,1.99E2,1.66E2,3.95E2,3.4E2,7.7E1,8E1,1.94E3,2.64E3,5.73E2,2.35E2,5.5E1,1.44E2,5.2E1,2.5E1,9.57E2,1.683E3,2.17E2,3.56E2],"tree_param":{"num_deleted":"0","num_feature":"8","num_nodes":"41","size_leaf_vector":"1"}},{"base_weights":[-8.468442E-4,-1.24317564E-1,4.9975738E-2,-9.701293E-2,-9.662426E-3,1.0165302E-1,-8.2128435E-2,-1.3084516E-2,-1.1005945E-1,5.6270864E-2,1.6678867E-1,-1.2312371E-1,-2.4625612E-2,-8.993493E-4,3.9258413E-3,-1.3549034E-1,-9.1196306E-2,7.4026E-2,-1.00647435E-1,1.851339E-1,6.3364424E-2,-1.1363678E-1,-1.0412056E-2,-1.21562175E-1,-6.976458E-3,-1.0483095E-1,-1.9274773E-1,-1.9252062E-2,-1.1590861E-1,1.6063032E-1,6.122883E-2,-1.342425E-3,-1.1104507E-1,6.647999E-2,2.0880613E-1,7.9563605E-3,4.7970973E-2,-3.3700734E-2,-1.2508218E-1,-1.6481475E-3,-1.3608E-1,1.47036E-1,-3.806555E-2,-7.6479763E-3,-2.7628746E-3,-9.888004E-3,-4.016792E-3,-1.2298629E-3,3.2018293E-3,-7.211083E-3,-2.9262463E-3,7.6961233E-3,1.3176523E-2,1.7499231E-3,4.7001024E-3,-5.8491793E-3,-0E0,8.040934E-3,2.602198E-3,1.7367106E-2,8.599816E-3,1.8772923E-3,5.852644E-3,-2.7355456E-3,-2.785708E-4,-6.730997E-3,-3.1626343E-3,-8.592433E-3,-5.10911E-3,1.2602108E-2,6.294521E-3,-5.627351E-3,5.2087073E-4],"categories":[],"categories_nodes":[],"categories_segments":[],"categories_sizes":[],"default_left":[0,0,0,0,0,0,0,0,0,0,0,0,0,0,0,0,0,0,0,0,0,0,0,0,0,0,0,0,0,0,0,0,0,0,0,0,0,0,0,0,0,0,0,0,0,0,0,0,0,0,0,0,0,0,0,0,0,0,0,0,0,0,0,0,0,0,0,0,0,0,0,0,0],"id":10,"left_children":[1,3,5,7,-1,9,11,13,15,17,19,21,23,-1,-1,25,27,29,31,33,35,37,-1,39,41,43,45,47,49,51,53,-1,55,57,59,-1,61,63,65,-1,67,69,71,-1,-1,-1,-1,-1,-1,-1,-1,-1,-1,-1,-1,-1,-1,-1,-1,-1,-1,-1,-1,-1,-1,-1,-1,-1,-1,-1,-1,-1,-1],"loss_changes":[6.909623E1,5.995762E0,5.3252388E1,2.507969E0,0E0,1.6542587E1,5.151849E0,1.3546999E-1,9.205513E-1,9.218442E0,4.3292007E0,9.7694206E-1,1.5517243E0,0E0,0E0,1.4316597E0,2.0270681E0,3.261816E0,2.4105334E-1,5.4441757E0,4.861244E-1,1.0357018E0,0E0,1.5868759E-1,3.7102714E0,1.2901287E0,1.2082958E-1,1.2940866E-1,1.3587856E0,1.8067169E-1,2.2120323E0,0E0,1.9148946E-1,4.1567767E-1,8.185196E0,0E0,1.9836211E-1,8.054422E-2,5.661297E-1,0E0,9.932232E-2,2.1913123E-1,2.3477557E0,0E0,0E0,0E0,0E0,0E0,0E0,0E0,0E0,0E0,0E0,0E0,0E0,0E0,0E0,0E0,0E0,0E0,0E0,0E0,0E0,0E0,0E0,0E0,0E0,0E0,0E0,0E0,0E0,0E0,0E0],"parents":[2147483647,0,0,1,1,2,2,3,3,5,5,6,6,7,7,8,8,9,9,10,10,11,11,12,12,15,15,16,16,17,17,18,18,19,19,20,20,21,21,23,23,24,24,25,25,26,26,27,27,28,28,29,29,30,30,32,32,33,33,34,34,36,36,37,37,38,38,40,40,41,41,42,42],"right_children":[2,4,6,8,-1,10,12,14,16,18,20,22,24,-1,-1,26,28,30,32,34,36,38,-1,40,42,44,46,48,50,52,54,-1,56,58,60,-1,62,64,66,-1,68,70,72,-1,-1,-1,-1,-1,-1,-1,-1,-1,-1,-1,-1,-1,-1,-1,-1,-1,-1,-1,-1,-1,-1,-1,-1,-1,-1,-1,-1,-1,-1],"split_conditions":[7E0,5E0,5E0,1E0,-9.662426E-3,1E0,1E0,1E0,4E0,2.3E1,2E1,2.3E1,9E0,-8.993493E-4,3.9258413E-3,3E0,5E0,1E0,1E0,9E0,1E0,1E0,-1.0412056E-2,1E0,1E1,2E0,1E0,1E0,7E0,1E0,1.5E1,-1.342425E-3,1E0,1E0,1E1,7.9563605E-3,7E0,1.5E1,7E0,-1.6481475E-3,4E0,1E0,1.8E1,-7.6479763E-3,-2.7628746E-3,-9.888004E-3,-4.016792E-3,-1.2298629E-3,3.2018293E-3,-7.211083E-3,-2.9262463E-3,7.6961233E-3,1.3176523E-2,1.7499231E-3,4.7001024E-3,-5.8491793E-3,-0E0,8.040934E-3,2.602198E-3,1.7367106E-2,8.599816E-3,1.8772923E-3,5.852644E-3,-2.7355456E-3,-2.785708E-4,-6.730997E-3,-3.1626343E-3,-8.592433E-3,-5.10911E-3,1.2602108E-2,6.294521E-3,-5.627351E-3,5.2087073E-4],"split_indices":[0,2,2,7,0,4,4,5,7,0,0,0,0,0,0,7,7,7,7,0,7,7,0,7,0,7,5,5,7,5,0,0,5,7,0,0,7,0,7,0,7,7,0,0,0,0,0,0,0,0,0,0,0,0,0,0,0,0,0,0,0,0,0,0,0,0,0,0,0,0,0,0,0],"split_type":[0,0,0,0,0,0,0,0,0,0,0,0,0,0,0,0,0,0,0,0,0,0,0,0,0,0,0,0,0,0,0,0,0,0,0,0,0,0,0,0,0,0,0,0,0,0,0,0,0,0,0,0,0,0,0,0,0,0,0,0,0,0,0,0,0,0,0,0,0,0,0,0,0],"sum_hessian":[1.1008E4,3.21E3,7.798E3,2.302E3,9.08E2,5.606E3,2.192E3,3.11E2,1.991E3,3.306E3,2.3E3,1.278E3,9.14E2,2.97E2,1.4E1,8.43E2,1.148E3,2.971E3,3.35E2,1.952E3,3.48E2,1.153E3,1.25E2,1.39E2,7.75E2,5.52E2,2.91E2,2.95E2,8.53E2,3.8E2,2.591E3,4.3E1,2.92E2,3.26E2,1.626E3,4.6E1,3.02E2,1.46E2,1.007E3,2.1E1,1.18E2,1.29E2,6.46E2,2.78E2,2.74E2,2.77E2,1.4E1,2.79E2,1.6E1,5.69E2,2.84E2,3.6E2,2E1,1.442E3,1.149E3,2.77E2,1.5E1,4.1E1,2.85E2,3.39E2,1.287E3,2.65E2,3.7E1,8.1E1,6.5E1,8.7E2,1.37E2,5.4E1,6.4E1,1.9E1,1.1E2,2.55E2,3.91E2],"tree_param":{"num_deleted":"0","num_feature":"8","num_nodes":"73","size_leaf_vector":"1"}},{"base_weights":[4.0849115E-4,-1.19531564E-1,4.886498E-2,-9.423058E-2,-9.200002E-3,9.791345E-2,-7.7169456E-2,-1.1130743E-2,-1.0595709E-1,5.377254E-2,1.5949942E-1,-1.1705849E-1,-2.1314299E-2,-2.2781469E-2,2.6185869E-3,-1.1613748E-1,-4.007751E-2,6.9676444E-2,-9.440266E-2,1.7629735E-1,5.8689628E-2,-4.4480655E-2,-1.2714115E-1,-3.439866E-3,-1.2790772E-1,-1.2456739E-3,-1.0981752E-2,-1.2484566E-1,-6.4033404E-2,-5.2456435E-2,-5.8595627E-3,1.4879377E-1,5.837825E-2,-1.2132289E-2,-1.0681388E-1,1.3829392E-1,2.552521E-1,7.1977125E-3,4.5810606E-2,-2.9719075E-2,-8.415242E-3,-1.1883267E-1,-1.0045954E-2,-4.2863473E-2,7.2840504E-2,-4.053219E-4,-1.4019002E-1,-6.986288E-4,-0E0,-5.7467734E-3,-8.597054E-3,-3.4121436E-3,-2.109146E-3,-3.6803277E-3,-1.6991211E-3,-1.8595447E-3,6.8161165E-4,6.826219E-3,1.0738174E-2,2.272722E-3,6.3129626E-3,-1.1416902E-3,2.7953142E-3,-5.8109015E-3,-1.9056735E-3,9.855483E-3,3.9950605E-3,1.6980127E-2,1.2111056E-2,5.045063E-4,3.6668235E-3,-1.9690495E-3,1.1992743E-3,-6.4540245E-3,-3.0750034E-3,8.942348E-4,-5.3103906E-3,8.422595E-3,2.842357E-3,-7.3522064E-3,-2.9529196E-3],"categories":[],"categories_nodes":[],"categories_segments":[],"categories_sizes":[],"default_left":[0,0,0,0,0,0,0,0,0,0,0,0,0,0,0,0,0,0,0,0,0,0,0,0,0,0,0,0,0,0,0,0,0,0,0,0,0,0,0,0,0,0,0,0,0,0,0,0,0,0,0,0,0,0,0,0,0,0,0,0,0,0,0,0,0,0,0,0,0,0,0,0,0,0,0,0,0,0,0,0,0],"id":11,"left_children":[1,3,5,7,-1,9,11,13,15,17,19,21,23,25,-1,27,29,31,33,35,37,39,41,43,45,-1,47,49,51,53,55,57,59,61,63,65,67,-1,69,71,-1,73,-1,75,77,-1,79,-1,-1,-1,-1,-1,-1,-1,-1,-1,-1,-1,-1,-1,-1,-1,-1,-1,-1,-1,-1,-1,-1,-1,-1,-1,-1,-1,-1,-1,-1,-1,-1,-1,-1],"loss_changes":[6.401075E1,5.123844E0,4.8512E1,2.2079315E0,0E0,1.5326683E1,4.8808317E0,2.083515E-1,1.3183994E0,7.7642717E0,3.957489E0,9.145889E-1,1.7354879E0,2.2248924E-3,0E0,7.5671387E-1,1.0822806E-1,2.629898E0,3.1253242E-1,5.9834557E0,3.4669316E-1,2.6582238E-1,6.325283E-1,2.3698356E0,1.767919E-1,0E0,2.2617667E-3,6.409035E-1,9.165406E-3,6.3322306E-2,4.8665654E-2,2.3503208E-1,2.2632837E0,3.0006396E-2,1.5845251E-1,4.647953E0,5.784149E-1,0E0,2.8293872E-1,7.720408E-2,0E0,5.6817627E-1,0E0,2.0155673E0,3.777058E-1,0E0,3.632331E-2,0E0,0E0,0E0,0E0,0E0,0E0,0E0,0E0,0E0,0E0,0E0,0E0,0E0,0E0,0E0,0E0,0E0,0E0,0E0,0E0,0E0,0E0,0E0,0E0,0E0,0E0,0E0,0E0,0E0,0E0,0E0,0E0,0E0,0E0],"parents":[2147483647,0,0,1,1,2,2,3,3,5,5,6,6,7,7,8,8,9,9,10,10,11,11,12,12,13,13,15,15,16,16,17,17,18,18,19,19,20,20,21,21,22,22,23,23,24,24,26,26,27,27,28,28,29,29,30,30,31,31,32,32,33,33,34,34,35,35,36,36,38,38,39,39,41,41,43,43,44,44,46,46],"right_children":[2,4,6,8,-1,10,12,14,16,18,20,22,24,26,-1,28,30,32,34,36,38,40,42,44,46,-1,48,50,52,54,56,58,60,62,64,66,68,-1,70,72,-1,74,-1,76,78,-1,80,-1,-1,-1,-1,-1,-1,-1,-1,-1,-1,-1,-1,-1,-1,-1,-1,-1,-1,-1,-1,-1,-1,-1,-1,-1,-1,-1,-1,-1,-1,-1,-1,-1,-1],"split_conditions":[7E0,5E0,5E0,1E0,-9.200002E-3,1E0,1E0,1E0,1E0,2.3E1,2E1,1E0,2E1,4E0,2.6185869E-3,7E0,2E0,1E0,1E0,1.8E1,1E0,2.3E1,2.3E1,1.8E1,1E0,-1.2456739E-3,6E0,6E0,4E0,4E0,4E0,1E0,1E0,1E0,7E0,1E1,1E0,7.1977125E-3,4E0,1E0,-8.415242E-3,7E0,-1.0045954E-2,1E1,1E0,-4.053219E-4,7E0,-6.986288E-4,-0E0,-5.7467734E-3,-8.597054E-3,-3.4121436E-3,-2.109146E-3,-3.6803277E-3,-1.6991211E-3,-1.8595447E-3,6.8161165E-4,6.826219E-3,1.0738174E-2,2.272722E-3,6.3129626E-3,-1.1416902E-3,2.7953142E-3,-5.8109015E-3,-1.9056735E-3,9.855483E-3,3.9950605E-3,1.6980127E-2,1.2111056E-2,5.045063E-4,3.6668235E-3,-1.9690495E-3,1.1992743E-3,-6.4540245E-3,-3.0750034E-3,8.942348E-4,-5.3103906E-3,8.422595E-3,2.842357E-3,-7.3522064E-3,-2.9529196E-3],"split_indices":[0,2,2,7,0,4,4,6,6,0,0,7,0,2,0,7,6,7,7,0,7,0,0,0,7,0,0,7,2,7,0,6,6,6,7,0,7,0,7,6,0,7,0,0,7,0,7,0,0,0,0,0,0,0,0,0,0,0,0,0,0,0,0,0,0,0,0,0,0,0,0,0,0,0,0,0,0,0,0,0,0],"split_type":[0,0,0,0,0,0,0,0,0,0,0,0,0,0,0,0,0,0,0,0,0,0,0,0,0,0,0,0,0,0,0,0,0,0,0,0,0,0,0,0,0,0,0,0,0,0,0,0,0,0,0,0,0,0,0,0,0,0,0,0,0,0,0,0,0,0,0,0,0,0,0,0,0,0,0,0,0,0,0,0,0],"sum_hessian":[1.1013E4,3.168E3,7.845E3,2.278E3,8.9E2,5.648E3,2.197E3,2.83E2,1.995E3,3.292E3,2.356E3,1.28E3,9.17E2,2.41E2,4.2E1,1.726E3,2.69E2,2.974E3,3.18E2,2.018E3,3.38E2,1.58E2,1.122E3,7.87E2,1.3E2,1.96E2,4.5E1,1.476E3,2.5E2,1.95E2,7.4E1,3.69E2,2.605E3,4.3E1,2.75E2,1.365E3,6.53E2,4.2E1,2.96E2,1.43E2,1.5E1,1.012E3,1.1E2,5.2E2,2.67E2,1.3E1,1.17E2,3.9E1,6E0,1.224E3,2.52E2,2.04E2,4.6E1,8.7E1,1.08E2,3E1,4.4E1,3.15E2,5.4E1,2.191E3,4.14E2,3.9E1,4E0,2.4E2,3.5E1,6.78E2,6.87E2,8.3E1,5.7E2,1.31E2,1.65E2,1.23E2,2E1,8.56E2,1.56E2,2.65E2,2.55E2,3.6E1,2.31E2,1.06E2,1.1E1],"tree_param":{"num_deleted":"0","num_feature":"8","num_nodes":"81","size_leaf_vector":"1"}},{"base_weights":[-5.85802E-4,4.052504E-2,-1.0444611E-1,-4.42057E-3,1.4927067E-1,-1.3715826E-1,-2.4390727E-2,-1.7004313E-2,6.7248344E-2,2.4596038E-1,1.348303E-1,-1.4507712E-1,-9.4999194E-2,-4.4282317E-2,6.43709E-2,5.8738533E-2,-2.8252114E-2,6.0038514E-2,1.0183641E-2,1.156116E-2,1.5651098E-2,1.2014047E-1,2.1894135E-1,-5.382719E-3,-1.5030973E-1,-1.6893977E-2,-1.05290085E-1,5.8443338E-2,-5.8908198E-2,2.3773268E-2,9.612144E-2,2.6308403E-3,7.969976E-3,-5.8118206E-2,-6.9820876E-3,6.8141366E-3,4.8792873E-2,1.3316755E-1,5.4740105E-2,2.0483129E-1,1.4318727E-2,-1.6473716E-1,-1.391327E-1,-1.3249377E-3,-0E0,-1.1258826E-1,-5.5508394E-2,3.4209683E-3,2.11598E-3,-6.9830686E-2,1.04603525E-2,-1.5258194E-3,7.344664E-2,8.426906E-3,8.401528E-2,-1.3258149E-3,-6.0909097E-3,3.4434132E-3,-1.6331645E-3,1.9352231E-3,5.4623117E-3,5.0431094E-3,8.9590615E-3,1.9869665E-3,6.466207E-3,9.940672E-3,1.5014367E-2,-7.667672E-3,-9.38462E-3,-4.884791E-3,-7.661865E-3,-5.2539683E-3,-7.0552835E-3,-8.4656983E-4,-4.007483E-3,-2.8396908E-3,-6.297398E-3,8.2738436E-4,4.366953E-5,2.4229721E-3,-7.290785E-4,8.257755E-3,2.2984433E-3,-0E0,4.917593E-3],"categories":[],"categories_nodes":[],"categories_segments":[],"categories_sizes":[],"default_left":[0,0,0,0,0,0,0,0,0,0,0,0,0,0,0,0,0,0,0,0,0,0,0,0,0,0,0,0,0,0,0,0,0,0,0,0,0,0,0,0,0,0,0,0,0,0,0,0,0,0,0,0,0,0,0,0,0,0,0,0,0,0,0,0,0,0,0,0,0,0,0,0,0,0,0,0,0,0,0,0,0,0,0,0,0],"id":12,"left_children":[1,3,5,7,9,11,13,15,17,19,21,23,25,27,29,31,33,35,-1,-1,-1,37,39,-1,41,43,45,47,49,51,53,-1,-1,55,57,-1,59,61,63,65,-1,67,69,-1,-1,71,73,-1,-1,75,77,79,81,-1,83,-1,-1,-1,-1,-1,-1,-1,-1,-1,-1,-1,-1,-1,-1,-1,-1,-1,-1,-1,-1,-1,-1,-1,-1,-1,-1,-1,-1,-1,-1],"loss_changes":[4.737962E1,3.88621E1,8.221813E0,5.0681977E0,3.175003E0,7.0770264E-1,1.616375E0,4.0759974E0,7.866385E-1,1.6968536E-1,2.4430695E0,3.2537842E-1,2.7375364E-1,1.1288266E0,2.0098782E-1,3.512349E-1,2.6414516E0,6.5991735E-1,0E0,0E0,0E0,1.4461327E0,1.767149E-1,0E0,2.1131134E-1,9.209817E-3,9.138489E-2,9.897351E-4,5.0446105E-1,1.0281268E-1,4.1240156E-2,0E0,0E0,3.468524E0,4.7476783E0,0E0,4.072814E-1,2.0929794E0,3.0241168E-1,3.514862E-2,0E0,1.2186241E-1,5.0639534E-1,0E0,0E0,1.879859E-2,3.0760631E-2,0E0,0E0,3.908496E-1,3.4373961E-3,2.9948581E-2,3.9334103E-2,0E0,9.831363E-2,0E0,0E0,0E0,0E0,0E0,0E0,0E0,0E0,0E0,0E0,0E0,0E0,0E0,0E0,0E0,0E0,0E0,0E0,0E0,0E0,0E0,0E0,0E0,0E0,0E0,0E0,0E0,0E0,0E0,0E0],"parents":[2147483647,0,0,1,1,2,2,3,3,4,4,5,5,6,6,7,7,8,8,9,9,10,10,11,11,12,12,13,13,14,14,15,15,16,16,17,17,21,21,22,22,24,24,25,25,26,26,27,27,28,28,29,29,30,30,33,33,34,34,36,36,37,37,38,38,39,39,41,41,42,42,45,45,46,46,49,49,50,50,51,51,52,52,54,54],"right_children":[2,4,6,8,10,12,14,16,18,20,22,24,26,28,30,32,34,36,-1,-1,-1,38,40,-1,42,44,46,48,50,52,54,-1,-1,56,58,-1,60,62,64,66,-1,68,70,-1,-1,72,74,-1,-1,76,78,80,82,-1,84,-1,-1,-1,-1,-1,-1,-1,-1,-1,-1,-1,-1,-1,-1,-1,-1,-1,-1,-1,-1,-1,-1,-1,-1,-1,-1,-1,-1,-1,-1],"split_conditions":[5E0,1E0,1E0,1E0,1E0,1E0,1E0,1E0,1E0,1E0,7E0,1E0,1E0,1E0,6E0,1E0,4E0,1E0,1.0183641E-2,1.156116E-2,1.5651098E-2,6E0,1E0,-5.382719E-3,4E0,2E0,7E0,6E0,7E0,2E0,1E0,2.6308403E-3,7.969976E-3,3E0,5E0,6.8141366E-3,7E0,4E0,1E0,1E0,1.4318727E-2,3E0,5E0,-1.3249377E-3,-0E0,6E0,6E0,3.4209683E-3,2.11598E-3,6E0,6E0,1E0,1E0,8.426906E-3,2E0,-1.3258149E-3,-6.0909097E-3,3.4434132E-3,-1.6331645E-3,1.9352231E-3,5.4623117E-3,5.0431094E-3,8.9590615E-3,1.9869665E-3,6.466207E-3,9.940672E-3,1.5014367E-2,-7.667672E-3,-9.38462E-3,-4.884791E-3,-7.661865E-3,-5.2539683E-3,-7.0552835E-3,-8.4656983E-4,-4.007483E-3,-2.8396908E-3,-6.297398E-3,8.2738436E-4,4.366953E-5,2.4229721E-3,-7.290785E-4,8.257755E-3,2.2984433E-3,-0E0,4.917593E-3],"split_indices":[2,4,4,6,7,6,6,7,5,6,7,7,7,7,2,5,7,7,0,0,0,7,6,0,7,6,7,2,7,6,7,0,0,7,7,0,7,7,6,5,0,7,7,0,0,7,2,0,0,7,2,7,7,0,7,0,0,0,0,0,0,0,0,0,0,0,0,0,0,0,0,0,0,0,0,0,0,0,0,0,0,0,0,0,0],"split_type":[0,0,0,0,0,0,0,0,0,0,0,0,0,0,0,0,0,0,0,0,0,0,0,0,0,0,0,0,0,0,0,0,0,0,0,0,0,0,0,0,0,0,0,0,0,0,0,0,0,0,0,0,0,0,0,0,0,0,0,0,0,0,0,0,0,0,0,0,0,0,0,0,0,0,0,0,0,0,0,0,0,0,0,0,0],"sum_hessian":[1.1093E4,7.947E3,3.146E3,5.623E3,2.324E3,2.232E3,9.14E2,4.785E3,8.38E2,2.99E2,2.025E3,1.875E3,3.57E2,7.48E2,1.66E2,6.17E2,4.168E3,7.98E2,4E1,2.5E2,4.9E1,1.727E3,2.98E2,2.35E2,1.64E3,4.3E1,3.14E2,9.2E1,6.56E2,7.5E1,9.1E1,5.84E2,3.3E1,1.731E3,2.437E3,1E2,6.98E2,1.438E3,2.89E2,2.51E2,4.7E1,7.06E2,9.34E2,3E1,1.3E1,2.71E2,4.3E1,5.1E1,4.1E1,5.68E2,8.8E1,4.9E1,2.6E1,1E1,8.1E1,1.159E3,5.72E2,6.15E2,1.822E3,6.01E2,9.7E1,8.48E2,5.9E2,2.43E2,4.6E1,2.4E2,1.1E1,4.8E2,2.26E2,2.41E2,6.93E2,2.21E2,5E1,1.9E1,2.4E1,4.64E2,1.04E2,4.7E1,4.1E1,8E0,4.1E1,4E0,2.2E1,1.2E1,6.9E1],"tree_param":{"num_deleted":"0","num_feature":"8","num_nodes":"85","size_leaf_vector":"1"}},{"base_weights":[-3.745667E-4,-4.039055E-2,9.5466845E-2,-4.9344283E-3,-1.3174458E-1,1.4130183E-1,-2.1961626E-2,-1.7287485E-2,6.8262815E-2,-6.928777E-3,-9.590269E-2,1.2864968E-1,2.0977381E-1,-3.7928615E-2,5.386777E-2,-2.2346476E-2,4.201961E-3,6.1143514E-2,9.31714E-3,-5.3441334E-3,-3.3461936E-3,6.1324323E-3,1.1763885E-2,9.491119E-3,1.1566267E-2,-1.5408843E-3,-2.2815429E-3,1.2321548E-2,4.18395E-3,-2.3154126E-2,-9.330997E-4,4.848093E-2,4.4669635E-3,-8.9456607E-4,3.694141E-3,-1.1043506E-3,-1.3309004E-3,2.8713557E-3,2.118684E-3],"categories":[],"categories_nodes":[],"categories_segments":[],"categories_sizes":[],"default_left":[0,0,0,0,0,0,0,0,0,0,0,0,0,0,0,0,0,0,0,0,0,0,0,0,0,0,0,0,0,0,0,0,0,0,0,0,0,0,0],"id":13,"left_children":[1,3,5,7,9,11,13,15,17,-1,19,21,23,25,27,29,-1,31,-1,-1,-1,-1,-1,-1,-1,-1,-1,33,-1,35,-1,37,-1,-1,-1,-1,-1,-1,-1],"loss_changes":[4.2568943E1,2.5353996E1,1.7609879E1,5.0994425E0,4.9920654E-1,1.9767456E0,1.1119335E0,2.472131E0,6.4814425E-1,0E0,8.8741064E-2,1.2080727E0,7.049179E-2,3.2574296E-2,1.8629736E-1,9.083986E-3,0E0,2.568004E-1,0E0,0E0,0E0,0E0,0E0,0E0,0E0,0E0,0E0,1.3525704E-1,0E0,8.399248E-3,0E0,1.687169E-2,0E0,0E0,0E0,0E0,0E0,0E0,0E0],"parents":[2147483647,0,0,1,1,2,2,3,3,4,4,5,5,6,6,7,7,8,8,10,10,11,11,12,12,13,13,14,14,15,15,17,17,27,27,29,29,31,31],"right_children":[2,4,6,8,10,12,14,16,18,-1,20,22,24,26,28,30,-1,32,-1,-1,-1,-1,-1,-1,-1,-1,-1,34,-1,36,-1,38,-1,-1,-1,-1,-1,-1,-1],"split_conditions":[1E0,5E0,5E0,1E0,1E0,1E0,1E0,1E0,1E0,-6.928777E-3,2E0,1E0,3E0,6E0,6E0,4E0,4.201961E-3,2E0,9.31714E-3,-5.3441334E-3,-3.3461936E-3,6.1324323E-3,1.1763885E-2,9.491119E-3,1.1566267E-2,-1.5408843E-3,-2.2815429E-3,2E0,4.18395E-3,3E0,-9.330997E-4,2E0,4.4669635E-3,-8.9456607E-4,3.694141E-3,-1.1043506E-3,-1.3309004E-3,2.8713557E-3,2.118684E-3],"split_indices":[4,2,2,6,6,6,6,5,5,0,6,5,2,2,2,2,0,6,0,0,0,0,0,0,0,0,0,6,0,2,0,2,0,0,0,0,0,0,0],"split_type":[0,0,0,0,0,0,0,0,0,0,0,0,0,0,0,0,0,0,0,0,0,0,0,0,0,0,0,0,0,0,0,0,0,0,0,0,0,0,0],"sum_hessian":[1.1099E4,7.831E3,3.268E3,5.643E3,2.188E3,2.351E3,9.17E2,4.83E3,8.13E2,1.833E3,3.55E2,1.988E3,3.63E2,7.59E2,1.58E2,4.602E3,2.28E2,7.69E2,4.4E1,2.53E2,1.02E2,1.885E3,1.03E2,1.96E2,1.67E2,4.04E2,3.55E2,6.8E1,9E1,3.748E3,8.54E2,5.35E2,2.34E2,4.5E1,2.3E1,2.893E3,8.55E2,2.07E2,3.28E2],"tree_param":{"num_deleted":"0","num_feature":"8","num_nodes":"39","size_leaf_vector":"1"}},{"base_weights":[-4.2571006E-5,-1.0806552E-1,4.379306E-2,-5.338051E-2,-1.16010346E-1,5.3785905E-2,-1.1536991E-1,-6.281188E-2,1.9379843E-3,-1.1971844E-1,-7.361122E-3,2.4723433E-2,9.1006175E-2,-1.19511455E-1,2.071762E-3,-3.3485875E-3,2.1402026E-3,-7.70715E-3,2.9891187E-2,-1.2686214E-1,-7.624844E-2,-1.2967504E-2,3.0180195E-3,1.9035721E-2,9.251183E-3,-9.242856E-3,1.07879795E-1,-6.387617E-2,-1.2781449E-1,1.3401079E-3,-5.4466897E-3,6.178534E-3,-1.5364505E-2,-0E0,4.568048E-2,-1.3231534E-1,-4.710703E-3,-8.2266785E-2,-3.682442E-2,-0E0,-1.98243E-2,9.0934835E-2,8.663459E-3,-2.1881832E-2,6.7916974E-2,2.5990704E-1,7.5849764E-2,-3.5566408E-3,-0E0,-1.3123575E-1,-2.7095241E-2,-4.1820537E-4,-0E0,-0E0,7.8490627E-4,-1.2119272E-3,-0E0,2.1707516E-3,-2.2406701E-3,3.1260399E-3,-0E0,-6.306523E-3,-8.140652E-3,-3.357865E-3,-5.423712E-3,-2.4828522E-3,-2.3166444E-4,-3.428025E-4,8.521665E-4,-3.7148409E-3,-1.0877553E-4,3.8180337E-3,8.052249E-3,-9.2533235E-5,3.559145E-3,3.0741647E-3,-1.7464897E-3,4.111824E-3,6.336855E-4,1.6325904E-2,1.2454211E-2,7.142686E-4,5.8419793E-3,-6.9137677E-3,-4.4746757E-3,-0E0,-2.0610592E-3],"categories":[],"categories_nodes":[],"categories_segments":[],"categories_sizes":[],"default_left":[0,0,0,0,0,0,0,0,0,0,0,0,0,0,0,0,0,0,0,0,0,0,0,0,0,0,0,0,0,0,0,0,0,0,0,0,0,0,0,0,0,0,0,0,0,0,0,0,0,0,0,0,0,0,0,0,0,0,0,0,0,0,0,0,0,0,0,0,0,0,0,0,0,0,0,0,0,0,0,0,0,0,0,0,0,0,0],"id":14,"left_children":[1,3,5,7,9,11,13,15,17,19,21,23,25,27,29,-1,-1,31,33,35,37,39,-1,41,-1,43,45,47,49,-1,51,53,55,57,59,61,-1,63,65,67,69,71,73,75,77,79,81,-1,-1,83,85,-1,-1,-1,-1,-1,-1,-1,-1,-1,-1,-1,-1,-1,-1,-1,-1,-1,-1,-1,-1,-1,-1,-1,-1,-1,-1,-1,-1,-1,-1,-1,-1,-1,-1,-1,-1],"loss_changes":[5.24399E1,1.3658409E0,1.2526756E1,2.195965E-1,1.1100464E0,8.003834E0,2.38163E-1,1.5949464E-1,1.8355912E-2,8.072243E-1,3.1732664E-2,3.773475E0,5.50506E0,1.8054008E-1,5.256478E-3,0E0,0E0,5.479288E-3,4.7843643E-3,3.76503E-1,7.640934E-2,9.793285E-3,0E0,2.9901767E0,0E0,4.5328614E-1,1.3488613E1,2.5323063E-2,1.14655495E-1,0E0,1.2308548E-4,5.6580745E-4,4.7834693E-3,1.9342154E-2,6.494889E-3,3.2329178E-1,0E0,1.06221676E-1,1.7061204E-2,4.2377873E-3,5.2757695E-2,4.809909E-1,2.3202343E0,4.3894127E-1,4.088536E-2,2.0931625E-1,5.7867737E0,0E0,0E0,7.504177E-2,5.979578E-3,0E0,0E0,0E0,0E0,0E0,0E0,0E0,0E0,0E0,0E0,0E0,0E0,0E0,0E0,0E0,0E0,0E0,0E0,0E0,0E0,0E0,0E0,0E0,0E0,0E0,0E0,0E0,0E0,0E0,0E0,0E0,0E0,0E0,0E0,0E0,0E0],"parents":[2147483647,0,0,1,1,2,2,3,3,4,4,5,5,6,6,7,7,8,8,9,9,10,10,11,11,12,12,13,13,14,14,17,17,18,18,19,19,20,20,21,21,23,23,25,25,26,26,27,27,28,28,30,30,31,31,32,32,33,33,34,34,35,35,37,37,38,38,39,39,40,40,41,41,42,42,43,43,44,44,45,45,46,46,49,49,50,50],"right_children":[2,4,6,8,10,12,14,16,18,20,22,24,26,28,30,-1,-1,32,34,36,38,40,-1,42,-1,44,46,48,50,-1,52,54,56,58,60,62,-1,64,66,68,70,72,74,76,78,80,82,-1,-1,84,86,-1,-1,-1,-1,-1,-1,-1,-1,-1,-1,-1,-1,-1,-1,-1,-1,-1,-1,-1,-1,-1,-1,-1,-1,-1,-1,-1,-1,-1,-1,-1,-1,-1,-1,-1,-1],"split_conditions":[7E0,1E0,2.3E1,1E0,1E0,1E0,1E0,1E0,2E0,1E0,1E0,1E0,9E0,1E0,3E0,-3.3485875E-3,2.1402026E-3,2E0,5E0,7E0,7E0,3E0,3.0180195E-3,1E0,9.251183E-3,1E0,1E1,1E0,2E0,1.3401079E-3,5E0,1E0,5E0,4E0,6E0,6E0,-4.710703E-3,5E0,2E0,2E0,4E0,1E0,7E0,1E0,6E0,1E0,1.8E1,-3.5566408E-3,-0E0,7E0,3E0,-4.1820537E-4,-0E0,-0E0,7.8490627E-4,-1.2119272E-3,-0E0,2.1707516E-3,-2.2406701E-3,3.1260399E-3,-0E0,-6.306523E-3,-8.140652E-3,-3.357865E-3,-5.423712E-3,-2.4828522E-3,-2.3166444E-4,-3.428025E-4,8.521665E-4,-3.7148409E-3,-1.0877553E-4,3.8180337E-3,8.052249E-3,-9.2533235E-5,3.559145E-3,3.0741647E-3,-1.7464897E-3,4.111824E-3,6.336855E-4,1.6325904E-2,1.2454211E-2,7.142686E-4,5.8419793E-3,-6.9137677E-3,-4.4746757E-3,-0E0,-2.0610592E-3],"split_indices":[0,7,0,6,5,4,5,5,6,6,6,5,0,7,7,0,0,0,0,7,7,7,0,7,0,6,0,6,6,0,7,0,0,0,0,7,0,7,6,7,7,6,7,7,7,7,0,0,0,7,7,0,0,0,0,0,0,0,0,0,0,0,0,0,0,0,0,0,0,0,0,0,0,0,0,0,0,0,0,0,0,0,0,0,0,0,0],"split_type":[0,0,0,0,0,0,0,0,0,0,0,0,0,0,0,0,0,0,0,0,0,0,0,0,0,0,0,0,0,0,0,0,0,0,0,0,0,0,0,0,0,0,0,0,0,0,0,0,0,0,0,0,0,0,0,0,0,0,0,0,0,0,0,0,0,0,0,0,0,0,0,0,0,0,0,0,0,0,0,0,0,0,0,0,0,0,0],"sum_hessian":[1.1071E4,3.196E3,7.875E3,4.08E2,2.788E3,7.411E3,4.64E2,3.5E2,5.8E1,2.695E3,9.3E1,4.164E3,3.247E3,4.49E2,1.5E1,3.38E2,1.2E1,4.1E1,1.7E1,2.311E3,3.84E2,8.8E1,5E0,4.023E3,1.41E2,4.67E2,2.78E3,6.1E1,3.88E2,6E0,9E0,1E1,3.1E1,8E0,9E0,1.975E3,3.36E2,3.3E2,5.4E1,2.6E1,6.2E1,5.05E2,3.518E3,4.03E2,6.4E1,4.82E2,2.298E3,5.4E1,7E0,3.74E2,1.4E1,5E0,4E0,7E0,3E0,2E1,1.1E1,5E0,3E0,6E0,3E0,1.649E3,3.26E2,2.14E2,1.16E2,3.6E1,1.8E1,1.5E1,1.1E1,1.3E1,4.9E1,4.21E2,8.4E1,3.011E3,5.07E2,5.3E1,3.5E2,4.9E1,1.5E1,6.2E1,4.2E2,9.2E2,1.378E3,3.16E2,5.8E1,5E0,9E0],"tree_param":{"num_deleted":"0","num_feature":"8","num_nodes":"87","size_leaf_vector":"1"}},{"base_weights":[-5.07442E-5,-1.031253E-1,4.1971244E-2,-8.283959E-2,-7.7577676E-3,8.498115E-2,-6.616397E-2,-1.3767593E-2,-9.277308E-2,9.505456E-2,-8.370092E-2,-9.729663E-2,-2.1619316E-2,-1.1381278E-3,3.6523294E-2,-1.0118659E-1,-3.9124418E-2,6.6191904E-2,1.319978E-1,-2.0557333E-2,-9.320501E-2,-3.537713E-2,-1.0646581E-1,-4.9889004E-3,-1.18384376E-1,1.099933E-3,2.7751352E-3,-1.2532343E-1,-8.338212E-2,-4.7103383E-2,6.587974E-4,4.2332325E-2,9.587723E-2,1.4891486E-1,3.3138964E-2,-1.2829042E-3,2.180066E-4,-1.0202191E-1,-3.512359E-2,-2.2294436E-2,-7.3733362E-3,-1.1666221E-1,-5.7161897E-2,-4.2047605E-2,6.535921E-2,-1.8524881E-2,-1.309202E-1,-4.881002E-3,-8.839459E-3,-9.7573333E-4,-5.2583055E-3,-1.8226091E-3,-4.4166385E-3,-3.5752848E-4,1.0755094E-3,4.969875E-3,2.5760545E-4,7.958105E-3,4.316082E-3,5.8015552E-3,1.089268E-2,5.701454E-3,9.739782E-4,-4.479617E-3,-8.073507E-3,-2.1011494E-3,-0E0,-1.6775134E-3,1.3393791E-3,-6.229849E-3,-3.6110922E-3,-2.4180624E-3,-7.761292E-3,5.117005E-4,-4.938064E-3,7.3818113E-3,2.5850653E-3,-1.7236465E-3,8.462257E-4,-7.007867E-3,-2.5740655E-3],"categories":[],"categories_nodes":[],"categories_segments":[],"categories_sizes":[],"default_left":[0,0,0,0,0,0,0,0,0,0,0,0,0,0,0,0,0,0,0,0,0,0,0,0,0,0,0,0,0,0,0,0,0,0,0,0,0,0,0,0,0,0,0,0,0,0,0,0,0,0,0,0,0,0,0,0,0,0,0,0,0,0,0,0,0,0,0,0,0,0,0,0,0,0,0,0,0,0,0,0,0],"id":15,"left_children":[1,3,5,7,-1,9,11,13,15,17,19,21,23,-1,25,27,29,31,33,35,37,39,41,43,45,-1,-1,47,49,51,53,55,57,59,61,-1,-1,63,65,67,-1,69,71,73,75,77,79,-1,-1,-1,-1,-1,-1,-1,-1,-1,-1,-1,-1,-1,-1,-1,-1,-1,-1,-1,-1,-1,-1,-1,-1,-1,-1,-1,-1,-1,-1,-1,-1,-1,-1],"loss_changes":[4.779443E1,3.3366165E0,3.6456497E1,1.5682163E0,0E0,9.538227E0,3.078555E0,1.3154575E-1,8.9017487E-1,5.615265E0,1.763463E-1,7.2636986E-1,1.4675758E0,0E0,2.8826408E-3,7.151432E-1,9.228596E-2,2.0892506E0,3.855156E0,7.833967E-3,1.2250495E-1,2.3196274E-1,5.4905415E-1,2.0521338E0,1.503743E-1,0E0,0E0,1.0003939E0,1.3837237E0,8.6182594E-2,8.917398E-3,3.496195E0,7.617626E-1,4.427658E0,3.612024E-1,0E0,0E0,1.3407254E-1,1.1928689E-2,8.7758586E-2,0E0,3.0349064E-1,1.4387673E-1,1.5428112E0,2.7696466E-1,1.1949206E-2,6.0207605E-2,0E0,0E0,0E0,0E0,0E0,0E0,0E0,0E0,0E0,0E0,0E0,0E0,0E0,0E0,0E0,0E0,0E0,0E0,0E0,0E0,0E0,0E0,0E0,0E0,0E0,0E0,0E0,0E0,0E0,0E0,0E0,0E0,0E0,0E0],"parents":[2147483647,0,0,1,1,2,2,3,3,5,5,6,6,7,7,8,8,9,9,10,10,11,11,12,12,14,14,15,15,16,16,17,17,18,18,19,19,20,20,21,21,22,22,23,23,24,24,27,27,28,28,29,29,30,30,31,31,32,32,33,33,34,34,37,37,38,38,39,39,41,41,42,42,43,43,44,44,45,45,46,46],"right_children":[2,4,6,8,-1,10,12,14,16,18,20,22,24,-1,26,28,30,32,34,36,38,40,42,44,46,-1,-1,48,50,52,54,56,58,60,62,-1,-1,64,66,68,-1,70,72,74,76,78,80,-1,-1,-1,-1,-1,-1,-1,-1,-1,-1,-1,-1,-1,-1,-1,-1,-1,-1,-1,-1,-1,-1,-1,-1,-1,-1,-1,-1,-1,-1,-1,-1,-1,-1],"split_conditions":[7E0,1E0,1E0,1E0,-7.7577676E-3,2.3E1,1E0,1E0,1E0,1E0,1E0,1E0,2E1,-1.1381278E-3,2E0,4E0,7E0,1.5E1,2E1,1E0,7E0,2.3E1,1E0,1.8E1,1E0,1.099933E-3,2.7751352E-3,3E0,5E0,6E0,2E0,1.2E1,1E0,1.8E1,1E0,-1.2829042E-3,2.180066E-4,6E0,1E0,1E0,-7.3733362E-3,7E0,2.3E1,1E1,1E0,1E0,7E0,-4.881002E-3,-8.839459E-3,-9.7573333E-4,-5.2583055E-3,-1.8226091E-3,-4.4166385E-3,-3.5752848E-4,1.0755094E-3,4.969875E-3,2.5760545E-4,7.958105E-3,4.316082E-3,5.8015552E-3,1.089268E-2,5.701454E-3,9.739782E-4,-4.479617E-3,-8.073507E-3,-2.1011494E-3,-0E0,-1.6775134E-3,1.3393791E-3,-6.229849E-3,-3.6110922E-3,-2.4180624E-3,-7.761292E-3,5.117005E-4,-4.938064E-3,7.3818113E-3,2.5850653E-3,-1.7236465E-3,8.462257E-4,-7.007867E-3,-2.5740655E-3],"split_indices":[0,3,3,7,0,0,4,6,6,4,7,7,0,0,6,7,7,0,0,6,7,0,6,0,7,0,0,7,7,7,6,0,7,0,7,0,0,7,6,6,0,7,0,0,7,6,7,0,0,0,0,0,0,0,0,0,0,0,0,0,0,0,0,0,0,0,0,0,0,0,0,0,0,0,0,0,0,0,0,0,0],"split_type":[0,0,0,0,0,0,0,0,0,0,0,0,0,0,0,0,0,0,0,0,0,0,0,0,0,0,0,0,0,0,0,0,0,0,0,0,0,0,0,0,0,0,0,0,0,0,0,0,0,0,0,0,0,0,0,0,0,0,0,0,0,0,0,0,0,0,0,0,0,0,0,0,0,0,0,0,0,0,0,0,0],"sum_hessian":[1.1031E4,3.195E3,7.836E3,2.302E3,8.93E2,5.607E3,2.229E3,2.91E2,2.011E3,5.292E3,3.15E2,1.31E3,9.19E2,2.49E2,4.2E1,1.736E3,2.75E2,2.974E3,2.318E3,4.3E1,2.72E2,1.71E2,1.139E3,7.86E2,1.33E2,2.8E1,1.4E1,7.32E2,1.004E3,2.31E2,4.4E1,1.652E3,1.322E3,1.978E3,3.4E2,3.9E1,4E0,2.34E2,3.8E1,1.55E2,1.6E1,9.41E2,1.98E2,5.16E2,2.7E2,1.6E1,1.17E2,4.79E2,2.53E2,2.57E2,7.47E2,1.87E2,4.4E1,2.9E1,1.5E1,6.5E2,1.002E3,1.7E2,1.152E3,1.342E3,6.36E2,4.7E1,2.93E2,1.97E2,3.7E1,3.3E1,5E0,1.28E2,2.7E1,7.95E2,1.46E2,1.84E2,1.4E1,2.68E2,2.48E2,3.6E1,2.34E2,1.3E1,3E0,1.03E2,1.4E1],"tree_param":{"num_deleted":"0","num_feature":"8","num_nodes":"81","size_leaf_vector":"1"}},{"base_weights":[9.710882E-4,-9.778405E-2,4.059882E-2,-7.853E-2,-7.3813796E-3,8.065024E-2,-6.2825054E-2,-1.1120607E-2,-8.8152476E-2,9.069407E-2,-8.020411E-2,-9.222502E-2,-2.3253005E-2,-1.3768454E-2,-6.487616E-3,-1.11304075E-1,-7.108767E-2,6.349606E-2,1.2556796E-1,-7.0278975E-4,-8.9880474E-2,-8.376888E-2,-8.175315E-3,-1.1221554E-1,-6.851468E-3,-0E0,-7.6562015E-4,-4.2660488E-4,-0E0,-8.5026406E-2,-8.003802E-3,-1.099685E-2,-9.12682E-2,4.0617775E-2,9.205706E-2,1.4124134E-1,3.1928007E-2,-9.935213E-2,-1.630494E-3,-2.008411E-2,-9.3273744E-2,-2.1330277E-3,-1.22844525E-1,1.3433537E-1,-3.6130007E-2,5.106594E-4,-5.132572E-4,2.5154813E-4,-4.1353857E-4,-6.5030656E-3,-1.7683575E-3,-8.163659E-4,-7.61784E-5,-5.8068056E-3,-2.0520473E-3,4.680132E-3,2.2840877E-4,7.590615E-3,4.137077E-3,1.7425095E-3,8.15594E-3,5.120933E-3,1.0602943E-3,-4.4062785E-3,-7.623289E-3,8.664677E-4,-1.5251017E-3,-5.8543864E-3,-3.7073996E-3,-6.7391507E-3,-2.6554482E-3,1.1041659E-2,5.7414244E-3,-4.6984944E-3,1.6253264E-4],"categories":[],"categories_nodes":[],"categories_segments":[],"categories_sizes":[],"default_left":[0,0,0,0,0,0,0,0,0,0,0,0,0,0,0,0,0,0,0,0,0,0,0,0,0,0,0,0,0,0,0,0,0,0,0,0,0,0,0,0,0,0,0,0,0,0,0,0,0,0,0,0,0,0,0,0,0,0,0,0,0,0,0,0,0,0,0,0,0,0,0,0,0,0,0],"id":16,"left_children":[1,3,5,7,-1,9,11,13,15,17,19,21,23,25,27,29,31,33,35,-1,37,39,-1,41,43,45,-1,-1,47,49,-1,51,53,55,57,59,61,63,-1,65,67,-1,69,71,73,-1,-1,-1,-1,-1,-1,-1,-1,-1,-1,-1,-1,-1,-1,-1,-1,-1,-1,-1,-1,-1,-1,-1,-1,-1,-1,-1,-1,-1,-1],"loss_changes":[4.309308E1,2.9916954E0,3.2565117E1,1.4667063E0,0E0,9.163895E0,2.538844E0,1.4058277E-3,7.608423E-1,5.033371E0,2.0148802E-1,7.192507E-1,1.3559813E0,2.1502897E-3,1.1370201E-3,1.0397158E0,1.3857594E0,1.9439287E0,3.4051476E0,0E0,1.4033127E-1,6.6898155E-1,0E0,8.540726E-2,3.277226E0,2.625818E-3,0E0,0E0,1.712203E-3,1.2088773E0,0E0,1.2935169E-2,1.054945E0,3.179594E0,7.054424E-1,4.627323E0,2.4017349E-1,1.09190464E-1,0E0,5.992168E-2,4.1808987E-1,0E0,7.72872E-2,1.7054915E-1,1.5104296E0,0E0,0E0,0E0,0E0,0E0,0E0,0E0,0E0,0E0,0E0,0E0,0E0,0E0,0E0,0E0,0E0,0E0,0E0,0E0,0E0,0E0,0E0,0E0,0E0,0E0,0E0,0E0,0E0,0E0,0E0],"parents":[2147483647,0,0,1,1,2,2,3,3,5,5,6,6,7,7,8,8,9,9,10,10,11,11,12,12,13,13,14,14,15,15,16,16,17,17,18,18,20,20,21,21,23,23,24,24,25,25,28,28,29,29,31,31,32,32,33,33,34,34,35,35,36,36,37,37,39,39,40,40,42,42,43,43,44,44],"right_children":[2,4,6,8,-1,10,12,14,16,18,20,22,24,26,28,30,32,34,36,-1,38,40,-1,42,44,46,-1,-1,48,50,-1,52,54,56,58,60,62,64,-1,66,68,-1,70,72,74,-1,-1,-1,-1,-1,-1,-1,-1,-1,-1,-1,-1,-1,-1,-1,-1,-1,-1,-1,-1,-1,-1,-1,-1,-1,-1,-1,-1,-1,-1],"split_conditions":[7E0,5E0,5E0,1E0,-7.3813796E-3,2.3E1,1E0,3E0,4E0,1E0,1E0,2.3E1,9E0,1E0,5E0,3E0,5E0,1.5E1,2E1,-7.0278975E-4,7E0,1E0,-8.175315E-3,1E0,1E1,1E0,-7.6562015E-4,-4.2660488E-4,6E0,2E0,-8.003802E-3,3E0,7E0,1.2E1,1E0,9E0,1E0,6E0,-1.630494E-3,1.2E1,4E0,-2.1330277E-3,7E0,1E0,1.8E1,5.106594E-4,-5.132572E-4,2.5154813E-4,-4.1353857E-4,-6.5030656E-3,-1.7683575E-3,-8.163659E-4,-7.61784E-5,-5.8068056E-3,-2.0520473E-3,4.680132E-3,2.2840877E-4,7.590615E-3,4.137077E-3,1.7425095E-3,8.15594E-3,5.120933E-3,1.0602943E-3,-4.4062785E-3,-7.623289E-3,8.664677E-4,-1.5251017E-3,-5.8543864E-3,-3.7073996E-3,-6.7391507E-3,-2.6554482E-3,1.1041659E-2,5.7414244E-3,-4.6984944E-3,1.6253264E-4],"split_indices":[0,2,2,7,0,0,4,2,7,4,7,0,0,0,0,7,7,0,0,0,7,7,0,7,0,2,0,0,0,7,0,2,7,0,7,0,7,7,0,0,7,0,7,7,0,0,0,0,0,0,0,0,0,0,0,0,0,0,0,0,0,0,0,0,0,0,0,0,0,0,0,0,0,0,0],"split_type":[0,0,0,0,0,0,0,0,0,0,0,0,0,0,0,0,0,0,0,0,0,0,0,0,0,0,0,0,0,0,0,0,0,0,0,0,0,0,0,0,0,0,0,0,0,0,0,0,0,0,0,0,0,0,0,0,0,0,0,0,0,0,0,0,0,0,0,0,0,0,0,0,0,0,0],"sum_hessian":[1.1011E4,3.152E3,7.859E3,2.277E3,8.75E2,5.666E3,2.193E3,2.86E2,1.991E3,5.334E3,3.32E2,1.256E3,9.37E2,1.67E2,1.19E2,8.4E2,1.151E3,3E3,2.334E3,4.4E1,2.88E2,1.126E3,1.3E2,1.44E2,7.93E2,2.3E1,1.44E2,8.4E1,3.5E1,5.49E2,2.91E2,2.91E2,8.6E2,1.669E3,1.331E3,1.998E3,3.36E2,2.45E2,4.3E1,1.48E2,9.78E2,2.1E1,1.23E2,1.35E2,6.58E2,7E0,1.6E1,1.8E1,1.7E1,2.86E2,2.63E2,1.79E2,1.12E2,5.73E2,2.87E2,6.74E2,9.95E2,1.76E2,1.155E3,3.42E2,1.656E3,4.2E1,2.94E2,2.06E2,3.9E1,3E1,1.18E2,4.31E2,5.47E2,1.03E2,2E1,2.2E1,1.13E2,2.67E2,3.91E2],"tree_param":{"num_deleted":"0","num_feature":"8","num_nodes":"75","size_leaf_vector":"1"}},{"base_weights":[-0E0,-9.358738E-2,3.7153523E-2,-7.4689165E-2,-7.0031113E-3,7.6804705E-2,-6.39662E-2,-8.282439E-2,-2.3818506E-2,8.631324E-2,-7.3287934E-2,-8.9311644E-2,-2.6985114E-2,-4.35321E-3,2.0565139E-4,-1.7832663E-3,5.807997E-3,6.0026996E-2,1.1976849E-1,-8.081873E-2,-1.6087852E-2,-8.10898E-2,-7.7686207E-3,-1.09427325E-1,-1.2132619E-2,-0E0,3.6110356E-3,4.876477E-2,1.1935069E-1,1.3496444E-1,3.1259295E-2,-4.2738505E-3,2.7390718E-4,-1.2886344E-3,-0E0,-9.0889536E-2,-3.365336E-2,-1.1315136E-1,-0E0,1.1780038E-1,-3.6969755E-2,-5.189436E-4,2.8371517E-4,1.3935579E-3,3.8053547E-3,5.2380934E-3,7.431014E-3,1.6411126E-3,7.738143E-3,1.1662975E-3,4.6053478E-3,-5.4162554E-3,-3.5326218E-3,1.915699E-4,-2.3920042E-3,-5.770545E-3,-2.085328E-3,5.142837E-3,1.0252872E-2,-4.3407073E-3,-9.513992E-5],"categories":[],"categories_nodes":[],"categories_segments":[],"categories_sizes":[],"default_left":[0,0,0,0,0,0,0,0,0,0,0,0,0,0,0,0,0,0,0,0,0,0,0,0,0,0,0,0,0,0,0,0,0,0,0,0,0,0,0,0,0,0,0,0,0,0,0,0,0,0,0,0,0,0,0,0,0,0,0,0,0],"id":17,"left_children":[1,3,5,7,-1,9,11,13,15,17,19,21,23,-1,-1,-1,25,27,29,31,33,35,-1,37,39,41,-1,43,45,47,49,-1,-1,-1,-1,51,53,55,-1,57,59,-1,-1,-1,-1,-1,-1,-1,-1,-1,-1,-1,-1,-1,-1,-1,-1,-1,-1,-1,-1],"loss_changes":[3.82499E1,2.713604E0,3.1581142E1,9.085798E-1,0E0,8.082504E0,2.0648956E0,7.1525574E-1,1.1199662E-1,4.6550636E0,1.3417602E-1,6.7744255E-1,1.094664E0,0E0,0E0,0E0,3.357606E-2,1.9710293E0,3.1250725E0,1.2745845E-1,5.071154E-3,5.293088E-1,0E0,6.234491E-2,2.4779608E0,4.830388E-3,0E0,1.4219656E0,1.6149426E-1,4.0105553E0,1.5284854E-1,0E0,0E0,0E0,0E0,3.163557E-1,1.1306846E-1,9.454489E-4,0E0,1.08501315E-1,1.1218486E0,0E0,0E0,0E0,0E0,0E0,0E0,0E0,0E0,0E0,0E0,0E0,0E0,0E0,0E0,0E0,0E0,0E0,0E0,0E0,0E0],"parents":[2147483647,0,0,1,1,2,2,3,3,5,5,6,6,7,7,8,8,9,9,10,10,11,11,12,12,16,16,17,17,18,18,19,19,20,20,21,21,23,23,24,24,25,25,27,27,28,28,29,29,30,30,35,35,36,36,37,37,39,39,40,40],"right_children":[2,4,6,8,-1,10,12,14,16,18,20,22,24,-1,-1,-1,26,28,30,32,34,36,-1,38,40,42,-1,44,46,48,50,-1,-1,-1,-1,52,54,56,-1,58,60,-1,-1,-1,-1,-1,-1,-1,-1,-1,-1,-1,-1,-1,-1,-1,-1,-1,-1,-1,-1],"split_conditions":[7E0,1E0,1E0,1E0,-7.0031113E-3,2.3E1,1E0,1E0,2E0,1E0,1E0,2.3E1,9E0,-4.35321E-3,2.0565139E-4,-1.7832663E-3,1E0,1E0,2E1,1E0,2E0,1E0,-7.7686207E-3,2E0,1E1,4E0,3.6110356E-3,1.5E1,2E0,9E0,1E0,-4.2738505E-3,2.7390718E-4,-1.2886344E-3,-0E0,1.5E1,1.2E1,1E0,-0E0,2E0,1.8E1,-5.189436E-4,2.8371517E-4,1.3935579E-3,3.8053547E-3,5.2380934E-3,7.431014E-3,1.6411126E-3,7.738143E-3,1.1662975E-3,4.6053478E-3,-5.4162554E-3,-3.5326218E-3,1.915699E-4,-2.3920042E-3,-5.770545E-3,-2.085328E-3,5.142837E-3,1.0252872E-2,-4.3407073E-3,-9.513992E-5],"split_indices":[0,3,3,6,0,0,4,5,6,4,6,0,0,0,0,0,5,6,0,5,6,6,0,6,0,0,0,0,6,0,6,0,0,0,0,0,0,6,0,6,0,0,0,0,0,0,0,0,0,0,0,0,0,0,0,0,0,0,0,0,0],"split_type":[0,0,0,0,0,0,0,0,0,0,0,0,0,0,0,0,0,0,0,0,0,0,0,0,0,0,0,0,0,0,0,0,0,0,0,0,0,0,0,0,0,0,0,0,0,0,0,0,0,0,0,0,0,0,0,0,0,0,0,0,0],"sum_hessian":[1.0999E4,3.125E3,7.874E3,2.225E3,9E2,5.657E3,2.217E3,1.916E3,3.09E2,5.321E3,3.36E2,1.313E3,9.04E2,1.828E3,8.8E1,2.23E2,8.6E1,2.983E3,2.338E3,2.95E2,4.1E1,1.171E3,1.42E2,1.36E2,7.68E2,8E1,6E0,2.51E3,4.73E2,1.994E3,3.44E2,2.81E2,1.4E1,2.3E1,1.8E1,9.68E2,2.03E2,1.32E2,4E0,1.22E2,6.46E2,2.8E1,5.2E1,1.426E3,1.084E3,3.21E2,1.52E2,3.25E2,1.669E3,3.07E2,3.7E1,5.15E2,4.53E2,5.4E1,1.49E2,1.26E2,6E0,1.07E2,1.5E1,2.65E2,3.81E2],"tree_param":{"num_deleted":"0","num_feature":"8","num_nodes":"61","size_leaf_vector":"1"}},{"base_weights":[-0E0,3.153798E-2,-8.133563E-2,-2.43069E-3,1.1270228E-1,-1.0660825E-1,-2.0758945E-2,-1.2671995E-2,5.657578E-2,1.9918266E-1,1.00707754E-1,-1.12381674E-1,-7.624058E-2,6.730916E-2,-3.2925367E-2,4.9387615E-2,-2.1825636E-2,5.8743693E-3,4.744566E-2,9.358754E-3,1.2868755E-2,8.895284E-2,1.6956064E-1,-4.192487E-3,-1.1625814E-1,-1.7486567E-2,-8.370147E-2,2.7009489E-3,6.17777E-3,-4.3215167E-2,7.018145E-2,2.315462E-3,3.0092744E-3,-3.0975156E-2,3.3154685E-2,3.755024E-2,5.2565606E-3,1.0200956E-1,2.22763E-2,7.97349E-3,1.1003885E-2,-1.2669738E-1,-1.0763772E-1,-1.3557307E-3,-5.8580936E-5,-9.2839316E-2,-5.712698E-2,-5.447054E-2,2.8973242E-2,-3.2879717E-3,8.488229E-2,-9.7100943E-4,-4.4938717E-3,1.2477555E-3,1.9009967E-3,2.486238E-3,-8.6913706E-4,3.5416086E-3,7.33423E-3,3.7206415E-4,5.115274E-3,-5.7236473E-3,-7.520117E-3,-3.4520046E-3,-5.992789E-3,-4.541047E-4,1.8555495E-4,-5.2822796E-3,-4.0703225E-3,-3.2887904E-3,-0E0,-2.1222967E-3,-5.4943054E-3,1.0489068E-3,3.8428132E-3,-6.8442366E-4,-0E0,3.4589812E-3,6.552772E-3],"categories":[],"categories_nodes":[],"categories_segments":[],"categories_sizes":[],"default_left":[0,0,0,0,0,0,0,0,0,0,0,0,0,0,0,0,0,0,0,0,0,0,0,0,0,0,0,0,0,0,0,0,0,0,0,0,0,0,0,0,0,0,0,0,0,0,0,0,0,0,0,0,0,0,0,0,0,0,0,0,0,0,0,0,0,0,0,0,0,0,0,0,0,0,0,0,0,0,0],"id":18,"left_children":[1,3,5,7,9,11,13,15,17,19,21,23,25,27,29,31,33,-1,35,-1,-1,37,39,-1,41,43,45,-1,-1,47,49,-1,-1,51,53,55,-1,57,59,-1,-1,61,63,-1,65,67,69,71,73,75,77,-1,-1,-1,-1,-1,-1,-1,-1,-1,-1,-1,-1,-1,-1,-1,-1,-1,-1,-1,-1,-1,-1,-1,-1,-1,-1,-1,-1],"loss_changes":[2.8617403E1,2.2177927E1,4.7569656E0,3.4215174E0,2.4114437E0,3.5793495E-1,9.8453367E-1,2.7432423E0,4.4341326E-1,1.0791302E-1,1.648201E0,1.7397118E-1,1.4491105E-1,5.8543265E-2,8.597047E-1,7.1721077E-3,2.1201317E0,0E0,3.990556E-1,0E0,0E0,1.5401497E0,8.089733E-2,0E0,1.08356476E-1,4.4963835E-3,5.6192398E-2,0E0,0E0,6.0375845E-1,8.7283045E-2,0E0,0E0,2.4470632E0,1.6689539E-2,4.2342526E-1,0E0,2.045992E0,3.3849806E-1,0E0,0E0,1.6493607E-1,3.9584923E-1,0E0,1.2511192E-3,6.3694715E-3,3.9497435E-2,4.065665E-1,2.6504405E-2,8.071424E-4,1.5862674E-2,0E0,0E0,0E0,0E0,0E0,0E0,0E0,0E0,0E0,0E0,0E0,0E0,0E0,0E0,0E0,0E0,0E0,0E0,0E0,0E0,0E0,0E0,0E0,0E0,0E0,0E0,0E0,0E0],"parents":[2147483647,0,0,1,1,2,2,3,3,4,4,5,5,6,6,7,7,8,8,9,9,10,10,11,11,12,12,13,13,14,14,15,15,16,16,18,18,21,21,22,22,24,24,25,25,26,26,29,29,30,30,33,33,34,34,35,35,37,37,38,38,41,41,42,42,44,44,45,45,46,46,47,47,48,48,49,49,50,50],"right_children":[2,4,6,8,10,12,14,16,18,20,22,24,26,28,30,32,34,-1,36,-1,-1,38,40,-1,42,44,46,-1,-1,48,50,-1,-1,52,54,56,-1,58,60,-1,-1,62,64,-1,66,68,70,72,74,76,78,-1,-1,-1,-1,-1,-1,-1,-1,-1,-1,-1,-1,-1,-1,-1,-1,-1,-1,-1,-1,-1,-1,-1,-1,-1,-1,-1,-1],"split_conditions":[5E0,1E0,1E0,1E0,1E0,1E0,1E0,1E0,1E0,1E0,7E0,1E0,1E0,1E0,2E0,4E0,7E0,5.8743693E-3,7E0,9.358754E-3,1.2868755E-2,6E0,1E0,-4.192487E-3,4E0,6E0,2E0,2.7009489E-3,6.17777E-3,7E0,2E0,2.315462E-3,3.0092744E-3,6E0,2E0,6E0,5.2565606E-3,4E0,1E0,7.97349E-3,1.1003885E-2,3E0,5E0,-1.3557307E-3,2E0,4E0,7E0,6E0,1E0,6E0,7E0,-9.7100943E-4,-4.4938717E-3,1.2477555E-3,1.9009967E-3,2.486238E-3,-8.6913706E-4,3.5416086E-3,7.33423E-3,3.7206415E-4,5.115274E-3,-5.7236473E-3,-7.520117E-3,-3.4520046E-3,-5.992789E-3,-4.541047E-4,1.8555495E-4,-5.2822796E-3,-4.0703225E-3,-3.2887904E-3,-0E0,-2.1222967E-3,-5.4943054E-3,1.0489068E-3,3.8428132E-3,-6.8442366E-4,-0E0,3.4589812E-3,6.552772E-3],"split_indices":[2,4,4,6,7,6,7,7,7,6,7,7,7,6,6,2,7,0,7,0,0,7,6,0,7,2,6,0,0,7,7,0,0,7,2,7,0,7,6,0,0,7,7,0,6,7,7,7,6,2,7,0,0,0,0,0,0,0,0,0,0,0,0,0,0,0,0,0,0,0,0,0,0,0,0,0,0,0,0],"split_type":[0,0,0,0,0,0,0,0,0,0,0,0,0,0,0,0,0,0,0,0,0,0,0,0,0,0,0,0,0,0,0,0,0,0,0,0,0,0,0,0,0,0,0,0,0,0,0,0,0,0,0,0,0,0,0,0,0,0,0,0,0,0,0,0,0,0,0,0,0,0,0,0,0,0,0,0,0,0,0],"sum_hessian":[1.1155E4,8.039E3,3.116E3,5.667E3,2.372E3,2.197E3,9.19E2,4.831E3,8.36E2,2.86E2,2.086E3,1.841E3,3.56E2,1.1E2,8.09E2,6.19E2,4.212E3,1.06E2,7.3E2,2.42E2,4.4E1,1.785E3,3.01E2,2.26E2,1.615E3,4.2E1,3.14E2,9.2E1,1.8E1,7.37E2,7.2E1,4.93E2,1.26E2,3.613E3,5.99E2,6.26E2,1.04E2,1.491E3,2.94E2,2.56E2,4.5E1,7.19E2,8.96E2,2.3E1,1.9E1,2.29E2,8.5E1,6.39E2,9.8E1,1.1E1,6.1E1,3.023E3,5.9E2,2.33E2,3.66E2,5.14E2,1.12E2,8.81E2,6.1E2,2.5E2,4.4E1,4.81E2,2.38E2,2.19E2,6.77E2,1.3E1,6E0,1E2,1.29E2,7.3E1,1.2E1,5.28E2,1.11E2,8.7E1,1.1E1,4E0,7E0,4.9E1,1.2E1],"tree_param":{"num_deleted":"0","num_feature":"8","num_nodes":"79","size_leaf_vector":"1"}},{"base_weights":[6.8514457E-4,3.0407665E-2,-7.559588E-2,-2.0098311E-3,1.0623156E-1,-9.816794E-2,-2.131971E-2,5.783395E-2,-1.0948672E-2,1.9100662E-1,9.418432E-2,-1.0403861E-1,-6.62906E-2,7.021656E-2,-3.603739E-2,4.6902895E-2,1.17513634E-1,-3.7029527E-2,8.295391E-3,8.870244E-3,1.2461692E-2,8.219634E-2,1.6440308E-1,-3.7968457E-3,-1.0807105E-1,-1.4201684E-2,-7.253577E-2,2.9662405E-3,8.48004E-3,-4.568866E-2,6.0797803E-2,2.123807E-3,6.2850625E-3,5.5352733E-3,1.0020218E-2,-7.3917075E-3,-9.606326E-2,7.678396E-2,-1.6051484E-2,9.459324E-2,1.8411467E-2,1.585602E-1,1.2374582E-2,-1.1257339E-1,-4.063052E-3,-1.1977082E-3,1.1084717E-4,-7.891418E-2,-3.344426E-2,-5.76462E-2,2.383113E-2,-2.5447798E-3,7.737626E-2,-2.7570615E-3,2.053058E-3,-5.0583137E-3,4.3721488E-4,3.2998023E-3,7.0268884E-3,-2.2800078E-3,2.1290798E-3,3.1789194E-3,6.9246045E-3,3.6939565E-4,3.633497E-3,7.4720676E-3,1.0162599E-2,-5.365355E-3,-6.9591687E-3,-3.3919222E-3,-4.8880368E-3,-2.0601922E-3,-1.1440657E-4,-2.3369705E-3,-5.26596E-3,7.643149E-4,4.0223193E-3,6.6342796E-3,3.1924525E-3],"categories":[],"categories_nodes":[],"categories_segments":[],"categories_sizes":[],"default_left":[0,0,0,0,0,0,0,0,0,0,0,0,0,0,0,0,0,0,0,0,0,0,0,0,0,0,0,0,0,0,0,0,0,0,0,0,0,0,0,0,0,0,0,0,0,0,0,0,0,0,0,0,0,0,0,0,0,0,0,0,0,0,0,0,0,0,0,0,0,0,0,0,0,0,0,0,0,0,0],"id":19,"left_children":[1,3,5,7,9,11,13,15,17,19,21,23,25,27,29,31,33,35,37,-1,-1,39,41,-1,43,45,47,-1,-1,49,51,-1,-1,-1,-1,53,55,57,59,61,63,65,-1,67,-1,-1,-1,69,71,73,75,-1,77,-1,-1,-1,-1,-1,-1,-1,-1,-1,-1,-1,-1,-1,-1,-1,-1,-1,-1,-1,-1,-1,-1,-1,-1,-1,-1],"loss_changes":[2.5094128E1,1.9593689E1,3.7875195E0,2.9814117E0,2.391348E0,3.8591194E-1,1.2304548E0,4.5035672E-1,2.4414186E0,1.4675808E-1,1.7236729E0,1.824646E-1,1.0285139E-1,1.0343689E-1,7.386522E-1,1.9236791E-1,8.779883E-3,3.601933E0,4.6662526E0,0E0,0E0,1.4031649E0,6.725216E-2,0E0,1.6556549E-1,8.631719E-3,6.2672734E-2,0E0,0E0,6.0245E-1,1.3805717E-1,0E0,0E0,0E0,0E0,3.189501E0,3.786273E-1,4.7489548E-1,3.5729868E0,2.01054E0,1.6730496E-1,5.1320553E-2,0E0,1.5254211E-1,0E0,0E0,0E0,3.128922E-2,6.919179E-3,2.9964638E-1,3.9992627E-2,0E0,1.9010097E-2,0E0,0E0,0E0,0E0,0E0,0E0,0E0,0E0,0E0,0E0,0E0,0E0,0E0,0E0,0E0,0E0,0E0,0E0,0E0,0E0,0E0,0E0,0E0,0E0,0E0,0E0],"parents":[2147483647,0,0,1,1,2,2,3,3,4,4,5,5,6,6,7,7,8,8,9,9,10,10,11,11,12,12,13,13,14,14,15,15,16,16,17,17,18,18,21,21,22,22,24,24,25,25,26,26,29,29,30,30,35,35,36,36,37,37,38,38,39,39,40,40,41,41,43,43,47,47,48,48,49,49,50,50,52,52],"right_children":[2,4,6,8,10,12,14,16,18,20,22,24,26,28,30,32,34,36,38,-1,-1,40,42,-1,44,46,48,-1,-1,50,52,-1,-1,-1,-1,54,56,58,60,62,64,66,-1,68,-1,-1,-1,70,72,74,76,-1,78,-1,-1,-1,-1,-1,-1,-1,-1,-1,-1,-1,-1,-1,-1,-1,-1,-1,-1,-1,-1,-1,-1,-1,-1,-1,-1],"split_conditions":[1E0,1E0,1E0,1E0,1E0,1E0,1E0,1E0,4E0,1E0,7E0,1E0,1E0,2E0,2E0,1E0,1E0,3E0,5E0,8.870244E-3,1.2461692E-2,6E0,1E0,-3.7968457E-3,7E0,2E0,7E0,2.9662405E-3,8.48004E-3,7E0,2E0,2.123807E-3,6.2850625E-3,5.5352733E-3,1.0020218E-2,2E0,1E0,1E0,7E0,4E0,1E0,1E0,1.2374582E-2,6E0,-4.063052E-3,-1.1977082E-3,1.1084717E-4,5E0,2E0,6E0,1E0,-2.5447798E-3,3E0,-2.7570615E-3,2.053058E-3,-5.0583137E-3,4.3721488E-4,3.2998023E-3,7.0268884E-3,-2.2800078E-3,2.1290798E-3,3.1789194E-3,6.9246045E-3,3.6939565E-4,3.633497E-3,7.4720676E-3,1.0162599E-2,-5.365355E-3,-6.9591687E-3,-3.3919222E-3,-4.8880368E-3,-2.0601922E-3,-1.1440657E-4,-2.3369705E-3,-5.26596E-3,7.643149E-4,4.0223193E-3,6.6342796E-3,3.1924525E-3],"split_indices":[3,4,4,7,7,6,7,6,7,6,7,7,7,6,6,5,5,7,7,0,0,7,5,0,7,6,7,0,0,7,7,0,0,0,0,7,5,6,7,7,6,6,0,7,0,0,0,7,6,7,6,0,7,0,0,0,0,0,0,0,0,0,0,0,0,0,0,0,0,0,0,0,0,0,0,0,0,0,0],"split_type":[0,0,0,0,0,0,0,0,0,0,0,0,0,0,0,0,0,0,0,0,0,0,0,0,0,0,0,0,0,0,0,0,0,0,0,0,0,0,0,0,0,0,0,0,0,0,0,0,0,0,0,0,0,0,0,0,0,0,0,0,0,0,0,0,0,0,0,0,0,0,0,0,0,0,0,0,0,0,0],"sum_hessian":[1.1068E4,7.966E3,3.102E3,5.58E3,2.386E3,2.189E3,9.13E2,7.23E2,4.857E3,2.94E2,2.092E3,1.844E3,3.45E2,1.25E2,7.88E2,6.14E2,1.09E2,2.064E3,2.793E3,2.43E2,5.1E1,1.79E3,3.02E2,2.37E2,1.607E3,3.9E1,3.06E2,1.15E2,1E1,7.18E2,7E1,5.84E2,3E1,1.04E2,5E0,1.376E3,6.88E2,7.33E2,2.06E3,1.497E3,2.93E2,2.86E2,1.6E1,1.37E3,2.37E2,2.8E1,1.1E1,2.6E2,4.6E1,6.14E2,1.04E2,8E0,6.2E1,6.94E2,6.82E2,6.57E2,3.1E1,6.3E2,1.03E2,1.371E3,6.89E2,8.8E2,6.17E2,2.46E2,4.7E1,2.43E2,4.3E1,1.151E3,2.19E2,1.7E2,9E1,3.4E1,1.2E1,5.03E2,1.11E2,9.3E1,1.1E1,9E0,5.3E1],"tree_param":{"num_deleted":"0","num_feature":"8","num_nodes":"79","size_leaf_vector":"1"}},{"base_weights":[2.3372604E-4,-8.5781634E-2,3.5050694E-2,-7.133072E-2,-6.1635594E-3,6.794339E-2,-4.9671914E-2,-7.871881E-2,-2.4867022E-2,7.6629E-2,-6.80455E-2,-7.317484E-2,-1.6748168E-2,-4.1457894E-3,9.78396E-4,-1.8347092E-3,1.1584591E-3,6.5946646E-2,1.3161671E-1,-7.505408E-2,-1.821027E-2,-6.606643E-2,-6.850867E-3,-1.7985186E-3,-1.1002811E-1,-4.6396744E-5,2.775425E-4,-4.8857224E-3,4.113311E-3,1.1760345E-1,5.3772263E-2,1.1470545E-1,1.7275637E-1,-3.984203E-3,-0E0,-0E0,-9.98731E-4,-3.277781E-2,-7.515225E-2,-9.95813E-2,1.8411268E-2,-5.9182714E-3,-3.0344832E-3,-0E0,-1.498799E-4,-1.0699272E-3,1.7925286E-4,2.332798E-3,1.2657157E-2,1.3465543E-3,4.7862553E-3,8.345203E-3,4.815481E-3,1.20589975E-2,6.210948E-3,-2.095642E-3,2.1282998E-5,-5.5299182E-3,-2.3266112E-3,-5.160605E-3,-0E0,6.10258E-3,-4.5678447E-4],"categories":[],"categories_nodes":[],"categories_segments":[],"categories_sizes":[],"default_left":[0,0,0,0,0,0,0,0,0,0,0,0,0,0,0,0,0,0,0,0,0,0,0,0,0,0,0,0,0,0,0,0,0,0,0,0,0,0,0,0,0,0,0,0,0,0,0,0,0,0,0,0,0,0,0,0,0,0,0,0,0,0,0],"id":20,"left_children":[1,3,5,7,-1,9,11,13,15,17,19,21,23,-1,25,-1,27,29,31,33,35,37,-1,39,41,43,-1,45,-1,47,49,51,53,-1,-1,-1,-1,55,57,59,61,-1,-1,-1,-1,-1,-1,-1,-1,-1,-1,-1,-1,-1,-1,-1,-1,-1,-1,-1,-1,-1,-1],"loss_changes":[3.307544E1,1.6956215E0,2.1920237E1,7.7756596E-1,0E0,6.69845E0,1.6913781E0,6.715641E-1,1.0178669E-1,3.1006374E0,1.0806012E-1,5.519819E-1,1.2701671E0,0E0,1.0145989E-3,0E0,5.6182522E-2,2.7839031E0,5.5254364E-1,1.1047208E-1,6.37806E-4,3.3638048E-1,0E0,1.5790288E0,2.6741028E-2,2.874012E-4,0E0,1.4586823E-2,0E0,8.122366E0,4.057002E0,5.5007076E-1,7.571349E-1,0E0,0E0,0E0,0E0,8.060187E-2,8.972349E-1,4.760945E-2,1.8909808E0,0E0,0E0,0E0,0E0,0E0,0E0,0E0,0E0,0E0,0E0,0E0,0E0,0E0,0E0,0E0,0E0,0E0,0E0,0E0,0E0,0E0,0E0],"parents":[2147483647,0,0,1,1,2,2,3,3,5,5,6,6,7,7,8,8,9,9,10,10,11,11,12,12,14,14,16,16,17,17,18,18,19,19,20,20,21,21,23,23,24,24,25,25,27,27,29,29,30,30,31,31,32,32,37,37,38,38,39,39,40,40],"right_children":[2,4,6,8,-1,10,12,14,16,18,20,22,24,-1,26,-1,28,30,32,34,36,38,-1,40,42,44,-1,46,-1,48,50,52,54,-1,-1,-1,-1,56,58,60,62,-1,-1,-1,-1,-1,-1,-1,-1,-1,-1,-1,-1,-1,-1,-1,-1,-1,-1,-1,-1,-1,-1],"split_conditions":[7E0,5E0,5E0,1E0,-6.1635594E-3,2.3E1,1E0,1E0,2E0,1E0,1E0,2.3E1,2E1,-4.1457894E-3,4E0,-1.8347092E-3,1E0,1E1,1.8E1,1E0,2E0,1.2E1,-6.850867E-3,9E0,1E0,2E0,2.775425E-4,4E0,4.113311E-3,9E0,1.8E1,1E1,2E1,-3.984203E-3,-0E0,-0E0,-9.98731E-4,1E0,1.5E1,2E0,1E1,-5.9182714E-3,-3.0344832E-3,-0E0,-1.498799E-4,-1.0699272E-3,1.7925286E-4,2.332798E-3,1.2657157E-2,1.3465543E-3,4.7862553E-3,8.345203E-3,4.815481E-3,1.20589975E-2,6.210948E-3,-2.095642E-3,2.1282998E-5,-5.5299182E-3,-2.3266112E-3,-5.160605E-3,-0E0,6.10258E-3,-4.5678447E-4],"split_indices":[0,2,2,6,0,0,4,5,6,6,6,0,0,0,0,0,5,0,0,5,2,0,0,0,6,0,0,0,0,0,0,0,0,0,0,0,0,6,0,6,0,0,0,0,0,0,0,0,0,0,0,0,0,0,0,0,0,0,0,0,0,0,0],"split_type":[0,0,0,0,0,0,0,0,0,0,0,0,0,0,0,0,0,0,0,0,0,0,0,0,0,0,0,0,0,0,0,0,0,0,0,0,0,0,0,0,0,0,0,0,0,0,0,0,0,0,0,0,0,0,0,0,0,0,0,0,0,0,0],"sum_hessian":[1.1044E4,3.181E3,7.863E3,2.3E3,8.81E2,5.665E3,2.198E3,1.982E3,3.18E2,5.326E3,3.39E2,1.28E3,9.18E2,1.884E3,9.8E1,2.21E2,9.7E1,4.463E3,8.63E2,2.95E2,4.4E1,1.155E3,1.25E2,7.93E2,1.25E2,6.3E1,3.5E1,9E1,7E0,8.48E2,3.615E3,6.16E2,2.47E2,2.79E2,1.6E1,6E0,3.8E1,2.51E2,9.04E2,1.36E2,6.57E2,1.04E2,2.1E1,3.2E1,3.1E1,3.4E1,5.6E1,5.58E2,2.9E2,2.207E3,1.408E3,1.57E2,4.59E2,1E2,1.47E2,1.99E2,5.2E1,4.01E2,5.03E2,1.31E2,5E0,1.38E2,5.19E2],"tree_param":{"num_deleted":"0","num_feature":"8","num_nodes":"63","size_leaf_vector":"1"}},{"base_weights":[-1.9590047E-4,-8.1174046E-2,3.310489E-2,-6.767239E-2,-5.851425E-3,6.583218E-2,-4.976818E-2,-7.4103825E-2,-2.6725471E-2,7.37147E-2,-6.411071E-2,-6.0136072E-2,-0E0,-3.9143683E-3,-0E0,-3.6222253E-2,-0E0,6.342344E-2,1.2638882E-1,-7.167259E-2,-7.585923E-4,-2.1485534E-2,-6.922812E-2,7.4575536E-2,-1.1123155E-2,-7.9336874E-5,2.1791612E-3,-2.3787985E-2,-2.0584257E-3,-2.304314E-2,1.3206246E-2,5.7675064E-2,1.7494646E-1,1.10018164E-1,1.6659485E-1,-3.8634797E-3,3.6441872E-4,-7.452827E-2,4.6963855E-3,-9.9840015E-2,-5.3454176E-2,-1.4858267E-3,9.202814E-3,-4.051139E-2,1.7217495E-2,8.138558E-5,-2.6149486E-4,6.0799764E-4,-0E0,-0E0,-1.3784356E-3,5.362074E-5,-1.9153728E-3,3.437793E-4,2.6935802E-3,5.053636E-3,2.3847981E-3,9.2490455E-3,6.6944384E-3,8.015082E-3,4.5256065E-3,1.1454833E-2,5.885847E-3,-2.1958246E-3,-4.9800784E-3,-3.6362414E-3,-5.8641457E-3,-1.0571213E-3,-4.685712E-3,-1.5022328E-4,-3.4780193E-3,3.0746693E-3,-2.9286526E-3],"categories":[],"categories_nodes":[],"categories_segments":[],"categories_sizes":[],"default_left":[0,0,0,0,0,0,0,0,0,0,0,0,0,0,0,0,0,0,0,0,0,0,0,0,0,0,0,0,0,0,0,0,0,0,0,0,0,0,0,0,0,0,0,0,0,0,0,0,0,0,0,0,0,0,0,0,0,0,0,0,0,0,0,0,0,0,0,0,0,0,0,0,0],"id":21,"left_children":[1,3,5,7,-1,9,11,13,15,17,19,21,23,-1,25,27,29,31,33,35,-1,37,39,41,43,45,47,49,-1,51,53,55,57,59,61,-1,-1,63,-1,65,67,-1,-1,69,71,-1,-1,-1,-1,-1,-1,-1,-1,-1,-1,-1,-1,-1,-1,-1,-1,-1,-1,-1,-1,-1,-1,-1,-1,-1,-1,-1,-1],"loss_changes":[2.9813416E1,1.5333633E0,2.1246922E1,6.054878E-1,0E0,5.758028E0,1.144773E0,6.3457394E-1,7.834335E-2,2.8438778E0,1.0902047E-1,6.342826E-1,3.1939954E-1,0E0,2.0935385E-4,6.9782436E-3,2.8002385E-2,2.8091793E0,5.220356E-1,1.2953806E-1,0E0,2.1660674E0,6.9543076E-1,5.918021E-1,2.8120935E-1,9.402279E-4,1.5654287E-3,6.2020607E-3,0E0,1.6648345E-2,7.4565643E-3,1.8074226E0,3.2336712E-2,5.6656265E-1,6.898699E-1,0E0,0E0,1.6778588E-1,0E0,2.0942593E-1,1.2652912E0,0E0,0E0,1.7339793E-1,5.710061E-1,0E0,0E0,0E0,0E0,0E0,0E0,0E0,0E0,0E0,0E0,0E0,0E0,0E0,0E0,0E0,0E0,0E0,0E0,0E0,0E0,0E0,0E0,0E0,0E0,0E0,0E0,0E0,0E0],"parents":[2147483647,0,0,1,1,2,2,3,3,5,5,6,6,7,7,8,8,9,9,10,10,11,11,12,12,14,14,15,15,16,16,17,17,18,18,19,19,21,21,22,22,23,23,24,24,25,25,26,26,27,27,29,29,30,30,31,31,32,32,33,33,34,34,37,37,39,39,40,40,43,43,44,44],"right_children":[2,4,6,8,-1,10,12,14,16,18,20,22,24,-1,26,28,30,32,34,36,-1,38,40,42,44,46,48,50,-1,52,54,56,58,60,62,-1,-1,64,-1,66,68,-1,-1,70,72,-1,-1,-1,-1,-1,-1,-1,-1,-1,-1,-1,-1,-1,-1,-1,-1,-1,-1,-1,-1,-1,-1,-1,-1,-1,-1,-1,-1],"split_conditions":[7E0,5E0,5E0,1E0,-5.851425E-3,2.3E1,1E0,1E0,2E0,1E0,1E0,1E1,1E1,-3.9143683E-3,4E0,2E0,4E0,1E0,1.8E1,1E0,-7.585923E-4,9E0,1.5E1,9E0,1.5E1,2E0,4E0,1E0,-2.0584257E-3,1E0,1E0,1E1,2E1,1E1,2E1,-3.8634797E-3,3.6441872E-4,8E0,4.6963855E-3,1.2E1,2E1,-1.4858267E-3,9.202814E-3,1.2E1,2E1,8.138558E-5,-2.6149486E-4,6.0799764E-4,-0E0,-0E0,-1.3784356E-3,5.362074E-5,-1.9153728E-3,3.437793E-4,2.6935802E-3,5.053636E-3,2.3847981E-3,9.2490455E-3,6.6944384E-3,8.015082E-3,4.5256065E-3,1.1454833E-2,5.885847E-3,-2.1958246E-3,-4.9800784E-3,-3.6362414E-3,-5.8641457E-3,-1.0571213E-3,-4.685712E-3,-1.5022328E-4,-3.4780193E-3,3.0746693E-3,-2.9286526E-3],"split_indices":[0,2,2,6,0,0,6,5,6,6,6,0,0,0,0,0,0,5,0,5,0,0,0,0,0,0,2,2,0,2,5,0,0,0,0,0,0,0,0,0,0,0,0,0,0,0,0,0,0,0,0,0,0,0,0,0,0,0,0,0,0,0,0,0,0,0,0,0,0,0,0,0,0],"split_type":[0,0,0,0,0,0,0,0,0,0,0,0,0,0,0,0,0,0,0,0,0,0,0,0,0,0,0,0,0,0,0,0,0,0,0,0,0,0,0,0,0,0,0,0,0,0,0,0,0,0,0,0,0,0,0,0,0,0,0,0,0,0,0,0,0,0,0,0,0,0,0,0,0],"sum_hessian":[1.1052E4,3.221E3,7.831E3,2.344E3,8.77E2,5.615E3,2.216E3,2.023E3,3.21E2,5.295E3,3.2E2,1.834E3,3.82E2,1.916E3,1.07E2,2.34E2,8.7E1,4.433E3,8.62E2,2.75E2,4.5E1,3.52E2,1.482E3,4.9E1,3.33E2,6.4E1,4.3E1,7.4E1,1.6E2,3.4E1,5.3E1,4.218E3,2.15E2,6.17E2,2.45E2,2.58E2,1.7E1,2.42E2,1.1E2,5E2,9.82E2,2.5E1,2.4E1,1.65E2,1.68E2,3.4E1,3E1,1.1E1,3.2E1,1.1E1,6.3E1,1.1E1,2.3E1,4.9E1,4E0,7.85E2,3.433E3,1.68E2,4.7E1,1.69E2,4.48E2,1.05E2,1.4E2,1.12E2,1.3E2,2E2,3E2,5.47E2,4.35E2,7.4E1,9.1E1,1.07E2,6.1E1],"tree_param":{"num_deleted":"0","num_feature":"8","num_nodes":"73","size_leaf_vector":"1"}},{"base_weights":[2.7173175E-4,-7.687949E-2,3.1701118E-2,-6.347117E-2,-5.5456557E-3,6.1989952E-2,-4.6848744E-2,-8.248682E-3,-7.177369E-2,6.991255E-2,-6.317305E-2,-6.80849E-2,-1.6357804E-2,-7.7430176E-4,3.4541737E-2,-9.128387E-2,-5.6558106E-2,1.3928683E-1,6.0139872E-2,-7.0150797E-3,-7.1268715E-2,-1.4619177E-2,-7.588708E-2,-2.8062938E-3,-9.922948E-2,-0E0,3.9834265E-2,-6.873304E-2,-1.3511263E-1,-4.6341337E-4,-7.569532E-2,1.1283324E-1,1.7175674E-1,4.935651E-2,1.2503795E-1,-1.4097857E-2,9.581276E-4,-7.80462E-2,-1.974691E-2,-2.4252392E-3,-5.459508E-3,-8.373668E-2,-2.9531267E-2,-3.6356796E-2,6.238708E-2,-8.929156E-3,-1.1243482E-1,1.0656315E-3,3.1840608E-3,-5.5753193E-3,-1.3057393E-3,-7.0788497E-3,-4.659339E-3,-3.364534E-4,1.7504217E-3,-4.8082313E-3,-1.7063497E-3,5.1799724E-3,7.909917E-3,9.29108E-3,3.968363E-3,3.0592761E-3,-4.62737E-4,5.3993836E-3,7.9405075E-3,-8.4398827E-4,-0E0,-4.2848643E-3,-1.4633205E-3,-1.6969306E-3,-0E0,-5.825916E-4,1.7996569E-3,-3.711146E-3,-6.576591E-3,-9.927636E-4,-5.915044E-3,1.1908913E-4,-3.8054255E-3,6.718062E-3,2.456546E-3,-0E0,-1.1629416E-3,-6.032236E-3,-2.3411883E-3],"categories":[],"categories_nodes":[],"categories_segments":[],"categories_sizes":[],"default_left":[0,0,0,0,0,0,0,0,0,0,0,0,0,0,0,0,0,0,0,0,0,0,0,0,0,0,0,0,0,0,0,0,0,0,0,0,0,0,0,0,0,0,0,0,0,0,0,0,0,0,0,0,0,0,0,0,0,0,0,0,0,0,0,0,0,0,0,0,0,0,0,0,0,0,0,0,0,0,0,0,0,0,0,0,0],"id":22,"left_children":[1,3,5,7,-1,9,11,13,15,17,19,21,23,-1,25,27,29,31,33,35,37,39,41,43,45,-1,47,49,51,53,55,57,59,61,63,65,-1,67,69,71,-1,73,75,77,79,81,83,-1,-1,-1,-1,-1,-1,-1,-1,-1,-1,-1,-1,-1,-1,-1,-1,-1,-1,-1,-1,-1,-1,-1,-1,-1,-1,-1,-1,-1,-1,-1,-1,-1,-1,-1,-1,-1,-1],"loss_changes":[2.669271E1,1.4294014E0,1.8619152E1,1.041338E0,0E0,5.6057396E0,1.400073E0,9.2155516E-2,5.705061E-1,3.5737476E0,1.4442956E-1,5.242076E-1,9.968814E-1,0E0,3.8386136E-3,8.2724905E-1,1.1978853E0,5.1391125E-1,3.2375488E0,8.107148E-3,9.064245E-2,1.8000363E-1,3.922844E-1,1.6904252E0,1.3591552E-1,0E0,5.1606707E-3,1.0333312E0,4.246998E-2,6.1416883E-2,6.950207E-1,1.1032677E-1,3.355713E-1,2.7783203E0,3.37368E-1,2.267072E-4,0E0,8.153939E-2,7.456961E-3,5.0801393E-2,0E0,4.0254736E-1,1.2555966E-1,7.959955E-1,2.2502398E-1,2.8926488E-3,3.5779476E-2,0E0,0E0,0E0,0E0,0E0,0E0,0E0,0E0,0E0,0E0,0E0,0E0,0E0,0E0,0E0,0E0,0E0,0E0,0E0,0E0,0E0,0E0,0E0,0E0,0E0,0E0,0E0,0E0,0E0,0E0,0E0,0E0,0E0,0E0,0E0,0E0,0E0,0E0],"parents":[2147483647,0,0,1,1,2,2,3,3,5,5,6,6,7,7,8,8,9,9,10,10,11,11,12,12,14,14,15,15,16,16,17,17,18,18,19,19,20,20,21,21,22,22,23,23,24,24,26,26,27,27,28,28,29,29,30,30,31,31,32,32,33,33,34,34,35,35,37,37,38,38,39,39,41,41,42,42,43,43,44,44,45,45,46,46],"right_children":[2,4,6,8,-1,10,12,14,16,18,20,22,24,-1,26,28,30,32,34,36,38,40,42,44,46,-1,48,50,52,54,56,58,60,62,64,66,-1,68,70,72,-1,74,76,78,80,82,84,-1,-1,-1,-1,-1,-1,-1,-1,-1,-1,-1,-1,-1,-1,-1,-1,-1,-1,-1,-1,-1,-1,-1,-1,-1,-1,-1,-1,-1,-1,-1,-1,-1,-1,-1,-1,-1,-1],"split_conditions":[7E0,5E0,5E0,1E0,-5.5456557E-3,2.3E1,1E0,1E0,4E0,1E0,1E0,1E0,2E1,-7.7430176E-4,1E0,3E0,5E0,1E0,7E0,1E0,1E0,2.3E1,7E0,1.8E1,1E0,-0E0,2E0,2E0,1E0,1E0,7E0,1E0,2E1,6E0,1.8E1,4E0,9.581276E-4,7E0,4E0,1E0,-5.459508E-3,6E0,2.3E1,1E1,1E0,6E0,7E0,1.0656315E-3,3.1840608E-3,-5.5753193E-3,-1.3057393E-3,-7.0788497E-3,-4.659339E-3,-3.364534E-4,1.7504217E-3,-4.8082313E-3,-1.7063497E-3,5.1799724E-3,7.909917E-3,9.29108E-3,3.968363E-3,3.0592761E-3,-4.62737E-4,5.3993836E-3,7.9405075E-3,-8.4398827E-4,-0E0,-4.2848643E-3,-1.4633205E-3,-1.6969306E-3,-0E0,-5.825916E-4,1.7996569E-3,-3.711146E-3,-6.576591E-3,-9.927636E-4,-5.915044E-3,1.1908913E-4,-3.8054255E-3,6.718062E-3,2.456546E-3,-0E0,-1.1629416E-3,-6.032236E-3,-2.3411883E-3],"split_indices":[0,2,2,7,0,0,4,6,7,7,7,7,0,0,0,7,7,4,7,6,6,0,7,0,7,0,6,7,6,6,7,6,0,7,0,2,0,7,7,6,0,7,0,0,7,2,7,0,0,0,0,0,0,0,0,0,0,0,0,0,0,0,0,0,0,0,0,0,0,0,0,0,0,0,0,0,0,0,0,0,0,0,0,0,0],"split_type":[0,0,0,0,0,0,0,0,0,0,0,0,0,0,0,0,0,0,0,0,0,0,0,0,0,0,0,0,0,0,0,0,0,0,0,0,0,0,0,0,0,0,0,0,0,0,0,0,0,0,0,0,0,0,0,0,0,0,0,0,0,0,0,0,0,0,0,0,0,0,0,0,0,0,0,0,0,0,0,0,0,0,0,0,0],"sum_hessian":[1.1008E4,3.185E3,7.823E3,2.289E3,8.96E2,5.647E3,2.176E3,3.01E2,1.988E3,5.312E3,3.35E2,1.28E3,8.96E2,2.6E2,4.1E1,8.66E2,1.122E3,6.53E2,4.659E3,4.4E1,2.91E2,1.65E2,1.115E3,7.72E2,1.24E2,8E0,3.3E1,5.75E2,2.91E2,2.87E2,8.35E2,3.64E2,2.89E2,3.998E3,6.61E2,3.8E1,6E0,2.55E2,3.6E1,1.48E2,1.7E1,9.51E2,1.64E2,5.11E2,2.61E2,1.7E1,1.07E2,2.2E1,1.1E1,2.85E2,2.9E2,2.48E2,4.3E1,2.47E2,4E1,5.57E2,2.78E2,3.07E2,5.7E1,2.49E2,4E1,3.328E3,6.7E2,4.44E2,2.17E2,2.7E1,1.1E1,2.18E2,3.7E1,1.8E1,1.8E1,1.22E2,2.6E1,7.97E2,1.54E2,1.5E2,1.4E1,2.58E2,2.53E2,3.8E1,2.23E2,1E1,7E0,9.3E1,1.4E1],"tree_param":{"num_deleted":"0","num_feature":"8","num_nodes":"85","size_leaf_vector":"1"}},{"base_weights":[1.0002766E-4,2.4194306E-2,-6.1619587E-2,-2.4254695E-3,8.766616E-2,-8.14494E-2,-1.5921641E-2,5.3933803E-2,-1.0465516E-2,1.5910912E-1,7.7502616E-2,-5.3371E-2,-8.525132E-2,6.5769516E-2,-2.953978E-2,4.4667624E-2,1.0276297E-1,-3.470464E-2,7.403388E-3,7.3803994E-3,1.0677445E-2,6.653853E-2,1.3785069E-1,-3.049403E-3,-2.2883017E-3,-9.6196055E-2,-7.661256E-2,2.4787786E-3,6.086659E-3,-4.2379532E-2,3.4803897E-2,2.0353037E-3,5.5846088E-3,4.2123236E-3,6.9094584E-3,-6.909191E-3,-9.0102E-2,6.943691E-2,-1.3790141E-2,6.059455E-2,8.477265E-3,1.3258459E-1,1.0824038E-2,-4.1421872E-4,1.7263219E-3,-8.231099E-2,-6.2082233E-3,-4.008777E-2,-8.896264E-2,-7.399934E-2,-1.8091029E-2,-1.5295482E-3,4.8815306E-2,-2.6495857E-3,1.9224444E-3,-4.9743573E-3,-1.9692013E-3,3.0204651E-3,6.132473E-3,-2.0213786E-3,1.9417659E-3,2.4555512E-3,5.7445928E-3,6.1377157E-3,8.749734E-3,-0E0,5.3612876E-4,-5.3202948E-3,-2.9252681E-3,-2.4715464E-3,1.5220241E-4,-5.0843125E-3,-3.2128587E-3,-2.192187E-3,-6.5229833E-3,2.7997897E-3,-2.2446855E-3,3.2224809E-3,7.0209656E-4],"categories":[],"categories_nodes":[],"categories_segments":[],"categories_sizes":[],"default_left":[0,0,0,0,0,0,0,0,0,0,0,0,0,0,0,0,0,0,0,0,0,0,0,0,0,0,0,0,0,0,0,0,0,0,0,0,0,0,0,0,0,0,0,0,0,0,0,0,0,0,0,0,0,0,0,0,0,0,0,0,0,0,0,0,0,0,0,0,0,0,0,0,0,0,0,0,0,0,0],"id":23,"left_children":[1,3,5,7,9,11,13,15,17,19,21,23,25,27,29,31,33,35,37,-1,-1,39,41,-1,43,45,47,-1,-1,49,51,-1,-1,-1,-1,53,55,57,59,61,-1,63,-1,-1,65,67,-1,69,71,73,75,-1,77,-1,-1,-1,-1,-1,-1,-1,-1,-1,-1,-1,-1,-1,-1,-1,-1,-1,-1,-1,-1,-1,-1,-1,-1,-1,-1],"loss_changes":[1.6458344E1,1.3463075E1,2.804473E0,2.5382833E0,1.6732788E0,2.1270561E-1,1.04739E0,2.9693627E-1,2.1305048E0,1.1456394E-1,1.3360567E0,9.625512E-2,1.5518093E-1,9.827471E-2,6.7141974E-1,1.3713658E-1,3.761518E-2,3.2032273E0,3.7218904E0,0E0,0E0,1.0381856E0,6.6824436E-2,0E0,1.5607697E-3,2.9145718E-1,4.675417E-1,0E0,0E0,5.093868E-1,1.260965E-1,0E0,0E0,0E0,0E0,2.9130704E0,3.13488E-1,3.2064033E-1,2.9539351E0,1.011138E0,0E0,7.339764E-2,0E0,0E0,7.6607283E-4,2.9849648E-1,0E0,1.1561066E-1,2.2803164E-1,4.740076E-1,7.678937E-1,0E0,5.2135497E-2,0E0,0E0,0E0,0E0,0E0,0E0,0E0,0E0,0E0,0E0,0E0,0E0,0E0,0E0,0E0,0E0,0E0,0E0,0E0,0E0,0E0,0E0,0E0,0E0,0E0,0E0],"parents":[2147483647,0,0,1,1,2,2,3,3,4,4,5,5,6,6,7,7,8,8,9,9,10,10,11,11,12,12,13,13,14,14,15,15,16,16,17,17,18,18,21,21,22,22,24,24,25,25,26,26,29,29,30,30,35,35,36,36,37,37,38,38,39,39,41,41,44,44,45,45,47,47,48,48,49,49,50,50,52,52],"right_children":[2,4,6,8,10,12,14,16,18,20,22,24,26,28,30,32,34,36,38,-1,-1,40,42,-1,44,46,48,-1,-1,50,52,-1,-1,-1,-1,54,56,58,60,62,-1,64,-1,-1,66,68,-1,70,72,74,76,-1,78,-1,-1,-1,-1,-1,-1,-1,-1,-1,-1,-1,-1,-1,-1,-1,-1,-1,-1,-1,-1,-1,-1,-1,-1,-1,-1],"split_conditions":[5E0,1E0,1E0,1E0,1E0,1E0,1E0,1E0,4E0,1E0,7E0,1E0,4E0,1E0,1E0,1E0,2E0,3E0,5E0,7.3803994E-3,1.0677445E-2,1E0,1E0,-3.049403E-3,2E0,3E0,5E0,2.4787786E-3,6.086659E-3,4E0,2E0,2.0353037E-3,5.5846088E-3,4.2123236E-3,6.9094584E-3,2E0,1E0,1E0,7E0,1E0,8.477265E-3,1E0,1.0824038E-2,-4.1421872E-4,6E0,2E0,-6.2082233E-3,1E0,7E0,3E0,5E0,-1.5295482E-3,6E0,-2.6495857E-3,1.9224444E-3,-4.9743573E-3,-1.9692013E-3,3.0204651E-3,6.132473E-3,-2.0213786E-3,1.9417659E-3,2.4555512E-3,5.7445928E-3,6.1377157E-3,8.749734E-3,-0E0,5.3612876E-4,-5.3202948E-3,-2.9252681E-3,-2.4715464E-3,1.5220241E-4,-5.0843125E-3,-3.2128587E-3,-2.192187E-3,-6.5229833E-3,2.7997897E-3,-2.2446855E-3,3.2224809E-3,7.0209656E-4],"split_indices":[2,4,4,7,7,7,7,6,7,6,7,6,7,6,6,5,6,7,7,0,0,5,5,0,6,7,7,0,0,7,7,0,0,0,0,7,6,6,7,6,0,6,0,0,2,7,0,6,7,7,7,0,7,0,0,0,0,0,0,0,0,0,0,0,0,0,0,0,0,0,0,0,0,0,0,0,0,0,0],"split_type":[0,0,0,0,0,0,0,0,0,0,0,0,0,0,0,0,0,0,0,0,0,0,0,0,0,0,0,0,0,0,0,0,0,0,0,0,0,0,0,0,0,0,0,0,0,0,0,0,0,0,0,0,0,0,0,0,0,0,0,0,0,0,0,0,0,0,0,0,0,0,0,0,0,0,0,0,0,0,0],"sum_hessian":[1.1068E4,7.962E3,3.106E3,5.609E3,2.353E3,2.164E3,9.42E2,6.98E2,4.911E3,2.9E2,2.063E3,2.63E2,1.901E3,1.33E2,8.09E2,5.9E2,1.08E2,2.086E3,2.825E3,2.44E2,4.6E1,1.749E3,3.14E2,2.27E2,3.6E1,8.29E2,1.072E3,1.06E2,2.7E1,6.76E2,1.33E2,5.6E2,3E1,7.5E1,3.3E1,1.391E3,6.95E2,7.2E2,2.105E3,1.656E3,9.3E1,2.98E2,1.6E1,2.4E1,1.2E1,5.59E2,2.7E2,2.74E2,7.98E2,2.91E2,3.85E2,2.2E1,1.11E2,6.91E2,7E2,5.84E2,1.11E2,6.19E2,1.01E2,1.399E3,7.06E2,1.37E3,2.86E2,2.47E2,5.1E1,6E0,6E0,2.74E2,2.85E2,2.27E2,4.7E1,5.22E2,2.76E2,1.92E2,9.9E1,1.01E2,2.84E2,7.4E1,3.7E1],"tree_param":{"num_deleted":"0","num_feature":"8","num_nodes":"79","size_leaf_vector":"1"}},{"base_weights":[-1.0709462E-4,-2.441735E-2,5.7730395E-2,-3.8023132E-3,-7.779319E-2,8.5418165E-2,-1.3580729E-2,4.99746E-2,-1.1576426E-2,-8.242113E-2,